=== Run information ===

Scheme:weka.classifiers.meta.AdaBoostM1 -P 100 -S 1 -I 40 -W weka.classifiers.trees.J48 -- -C 0.25 -M 2
Relation:     german_credit
Instances:    1000
Attributes:   21
              checking_status
              duration
              credit_history
              purpose
              credit_amount
              savings_status
              employment
              installment_commitment
              personal_status
              other_parties
              residence_since
              property_magnitude
              age
              other_payment_plans
              housing
              existing_credits
              job
              num_dependents
              own_telephone
              foreign_worker
              class
Test mode:10-fold cross-validation

=== Classifier model (full training set) ===

AdaBoostM1: Base classifiers and their weights: 

J48 pruned tree
------------------

checking_status = <0
|   foreign_worker = yes
|   |   duration <= 11
|   |   |   existing_credits <= 1
|   |   |   |   property_magnitude = real estate: good (8.0/1.0)
|   |   |   |   property_magnitude = life insurance
|   |   |   |   |   own_telephone = none: bad (2.0)
|   |   |   |   |   own_telephone = yes: good (4.0)
|   |   |   |   property_magnitude = car: good (2.0/1.0)
|   |   |   |   property_magnitude = no known property: bad (3.0)
|   |   |   existing_credits > 1: good (14.0)
|   |   duration > 11
|   |   |   job = unemp/unskilled non res: bad (5.0/1.0)
|   |   |   job = unskilled resident
|   |   |   |   purpose = new car
|   |   |   |   |   own_telephone = none: bad (10.0/2.0)
|   |   |   |   |   own_telephone = yes: good (2.0)
|   |   |   |   purpose = used car: bad (1.0)
|   |   |   |   purpose = furniture/equipment
|   |   |   |   |   employment = unemployed: good (0.0)
|   |   |   |   |   employment = <1: bad (3.0)
|   |   |   |   |   employment = 1<=X<4: good (4.0)
|   |   |   |   |   employment = 4<=X<7: good (1.0)
|   |   |   |   |   employment = >=7: good (2.0)
|   |   |   |   purpose = radio/tv
|   |   |   |   |   existing_credits <= 1: bad (10.0/3.0)
|   |   |   |   |   existing_credits > 1: good (2.0)
|   |   |   |   purpose = domestic appliance: bad (1.0)
|   |   |   |   purpose = repairs: bad (1.0)
|   |   |   |   purpose = education: bad (1.0)
|   |   |   |   purpose = vacation: bad (0.0)
|   |   |   |   purpose = retraining: good (1.0)
|   |   |   |   purpose = business: good (3.0)
|   |   |   |   purpose = other: good (1.0)
|   |   |   job = skilled
|   |   |   |   other_parties = none
|   |   |   |   |   duration <= 30
|   |   |   |   |   |   savings_status = <100
|   |   |   |   |   |   |   credit_history = no credits/all paid: bad (8.0/1.0)
|   |   |   |   |   |   |   credit_history = all paid: bad (6.0)
|   |   |   |   |   |   |   credit_history = existing paid
|   |   |   |   |   |   |   |   own_telephone = none
|   |   |   |   |   |   |   |   |   existing_credits <= 1
|   |   |   |   |   |   |   |   |   |   property_magnitude = real estate
|   |   |   |   |   |   |   |   |   |   |   age <= 26: bad (5.0)
|   |   |   |   |   |   |   |   |   |   |   age > 26: good (2.0)
|   |   |   |   |   |   |   |   |   |   property_magnitude = life insurance: bad (7.0/2.0)
|   |   |   |   |   |   |   |   |   |   property_magnitude = car
|   |   |   |   |   |   |   |   |   |   |   credit_amount <= 1386: bad (3.0)
|   |   |   |   |   |   |   |   |   |   |   credit_amount > 1386: good (11.0/1.0)
|   |   |   |   |   |   |   |   |   |   property_magnitude = no known property: good (2.0)
|   |   |   |   |   |   |   |   |   existing_credits > 1: bad (3.0)
|   |   |   |   |   |   |   |   own_telephone = yes: bad (5.0)
|   |   |   |   |   |   |   credit_history = delayed previously: bad (4.0)
|   |   |   |   |   |   |   credit_history = critical/other existing credit: good (14.0/4.0)
|   |   |   |   |   |   savings_status = 100<=X<500
|   |   |   |   |   |   |   credit_history = no credits/all paid: good (0.0)
|   |   |   |   |   |   |   credit_history = all paid: good (1.0)
|   |   |   |   |   |   |   credit_history = existing paid: bad (3.0)
|   |   |   |   |   |   |   credit_history = delayed previously: good (0.0)
|   |   |   |   |   |   |   credit_history = critical/other existing credit: good (2.0)
|   |   |   |   |   |   savings_status = 500<=X<1000: good (4.0/1.0)
|   |   |   |   |   |   savings_status = >=1000: good (4.0)
|   |   |   |   |   |   savings_status = no known savings
|   |   |   |   |   |   |   existing_credits <= 1
|   |   |   |   |   |   |   |   own_telephone = none: bad (9.0/1.0)
|   |   |   |   |   |   |   |   own_telephone = yes: good (4.0/1.0)
|   |   |   |   |   |   |   existing_credits > 1: good (2.0)
|   |   |   |   |   duration > 30: bad (30.0/3.0)
|   |   |   |   other_parties = co applicant: bad (7.0/1.0)
|   |   |   |   other_parties = guarantor: good (12.0/3.0)
|   |   |   job = high qualif/self emp/mgmt: good (30.0/8.0)
|   foreign_worker = no: good (15.0/2.0)
checking_status = 0<=X<200
|   credit_amount <= 9857
|   |   savings_status = <100
|   |   |   other_parties = none
|   |   |   |   duration <= 42
|   |   |   |   |   personal_status = male div/sep: bad (8.0/2.0)
|   |   |   |   |   personal_status = female div/dep/mar
|   |   |   |   |   |   purpose = new car: bad (5.0/1.0)
|   |   |   |   |   |   purpose = used car: bad (1.0)
|   |   |   |   |   |   purpose = furniture/equipment
|   |   |   |   |   |   |   duration <= 10: bad (3.0)
|   |   |   |   |   |   |   duration > 10
|   |   |   |   |   |   |   |   duration <= 21: good (6.0/1.0)
|   |   |   |   |   |   |   |   duration > 21: bad (2.0)
|   |   |   |   |   |   purpose = radio/tv: good (8.0/2.0)
|   |   |   |   |   |   purpose = domestic appliance: good (0.0)
|   |   |   |   |   |   purpose = repairs: good (1.0)
|   |   |   |   |   |   purpose = education: good (4.0/2.0)
|   |   |   |   |   |   purpose = vacation: good (0.0)
|   |   |   |   |   |   purpose = retraining: good (0.0)
|   |   |   |   |   |   purpose = business
|   |   |   |   |   |   |   residence_since <= 2: good (3.0)
|   |   |   |   |   |   |   residence_since > 2: bad (2.0)
|   |   |   |   |   |   purpose = other: good (0.0)
|   |   |   |   |   personal_status = male single: good (52.0/15.0)
|   |   |   |   |   personal_status = male mar/wid
|   |   |   |   |   |   duration <= 10: good (6.0)
|   |   |   |   |   |   duration > 10: bad (10.0/3.0)
|   |   |   |   |   personal_status = female single: good (0.0)
|   |   |   |   duration > 42: bad (7.0)
|   |   |   other_parties = co applicant: good (2.0)
|   |   |   other_parties = guarantor
|   |   |   |   purpose = new car: bad (2.0)
|   |   |   |   purpose = used car: good (0.0)
|   |   |   |   purpose = furniture/equipment: good (0.0)
|   |   |   |   purpose = radio/tv: good (18.0/1.0)
|   |   |   |   purpose = domestic appliance: good (0.0)
|   |   |   |   purpose = repairs: good (0.0)
|   |   |   |   purpose = education: good (0.0)
|   |   |   |   purpose = vacation: good (0.0)
|   |   |   |   purpose = retraining: good (0.0)
|   |   |   |   purpose = business: good (0.0)
|   |   |   |   purpose = other: good (0.0)
|   |   savings_status = 100<=X<500
|   |   |   purpose = new car: bad (15.0/5.0)
|   |   |   purpose = used car: good (3.0)
|   |   |   purpose = furniture/equipment: bad (4.0/1.0)
|   |   |   purpose = radio/tv: bad (8.0/2.0)
|   |   |   purpose = domestic appliance: good (0.0)
|   |   |   purpose = repairs: good (2.0)
|   |   |   purpose = education: good (0.0)
|   |   |   purpose = vacation: good (0.0)
|   |   |   purpose = retraining: good (0.0)
|   |   |   purpose = business
|   |   |   |   housing = rent
|   |   |   |   |   existing_credits <= 1: good (2.0)
|   |   |   |   |   existing_credits > 1: bad (2.0)
|   |   |   |   housing = own: good (6.0)
|   |   |   |   housing = for free: bad (1.0)
|   |   |   purpose = other: good (1.0)
|   |   savings_status = 500<=X<1000: good (11.0/3.0)
|   |   savings_status = >=1000: good (13.0/3.0)
|   |   savings_status = no known savings: good (41.0/5.0)
|   credit_amount > 9857: bad (20.0/3.0)
checking_status = >=200: good (63.0/14.0)
checking_status = no checking: good (394.0/46.0)

Number of Leaves  : 	103

Size of the tree : 	140


Weight: 1.77

J48 pruned tree
------------------

other_payment_plans = bank
|   residence_since <= 1
|   |   age <= 51: good (11.64)
|   |   age > 51: bad (4.03)
|   residence_since > 1
|   |   age <= 44: bad (128.84/29.18)
|   |   age > 44: good (25.55/6.96)
other_payment_plans = stores
|   purpose = new car: bad (8.65/1.17)
|   purpose = used car: good (2.92/1.17)
|   purpose = furniture/equipment: good (6.43)
|   purpose = radio/tv
|   |   credit_amount <= 2241: bad (13.85/1.75)
|   |   credit_amount > 2241: good (2.34)
|   purpose = domestic appliance: bad (0.0)
|   purpose = repairs: bad (3.45)
|   purpose = education: bad (4.03)
|   purpose = vacation: bad (0.0)
|   purpose = retraining: bad (0.0)
|   purpose = business: bad (10.99/2.92)
|   purpose = other: bad (3.45)
other_payment_plans = none
|   credit_history = no credits/all paid: bad (30.69/5.26)
|   credit_history = all paid
|   |   credit_amount <= 9857: bad (17.95/1.75)
|   |   credit_amount > 9857: good (3.45)
|   credit_history = existing paid
|   |   credit_amount <= 5866
|   |   |   foreign_worker = yes
|   |   |   |   other_parties = none
|   |   |   |   |   purpose = new car
|   |   |   |   |   |   personal_status = male div/sep: bad (1.75/0.58)
|   |   |   |   |   |   personal_status = female div/dep/mar: bad (30.17/7.02)
|   |   |   |   |   |   personal_status = male single
|   |   |   |   |   |   |   checking_status = <0
|   |   |   |   |   |   |   |   installment_commitment <= 3: good (4.68/1.17)
|   |   |   |   |   |   |   |   installment_commitment > 3: bad (5.79/0.58)
|   |   |   |   |   |   |   checking_status = 0<=X<200: good (5.79)
|   |   |   |   |   |   |   checking_status = >=200: good (0.58)
|   |   |   |   |   |   |   checking_status = no checking: good (5.26)
|   |   |   |   |   |   personal_status = male mar/wid: good (8.13/0.58)
|   |   |   |   |   |   personal_status = female single: bad (0.0)
|   |   |   |   |   purpose = used car: good (30.11/4.03)
|   |   |   |   |   purpose = furniture/equipment
|   |   |   |   |   |   job = unemp/unskilled non res: bad (0.58)
|   |   |   |   |   |   job = unskilled resident
|   |   |   |   |   |   |   duration <= 11: good (4.03)
|   |   |   |   |   |   |   duration > 11
|   |   |   |   |   |   |   |   installment_commitment <= 3
|   |   |   |   |   |   |   |   |   num_dependents <= 1: good (5.26/0.58)
|   |   |   |   |   |   |   |   |   num_dependents > 1: bad (3.45)
|   |   |   |   |   |   |   |   installment_commitment > 3: bad (7.48)
|   |   |   |   |   |   job = skilled
|   |   |   |   |   |   |   savings_status = <100
|   |   |   |   |   |   |   |   credit_amount <= 4380
|   |   |   |   |   |   |   |   |   property_magnitude = real estate: good (7.02/1.17)
|   |   |   |   |   |   |   |   |   property_magnitude = life insurance: good (12.68/0.58)
|   |   |   |   |   |   |   |   |   property_magnitude = car
|   |   |   |   |   |   |   |   |   |   duration <= 15: good (2.34/0.58)
|   |   |   |   |   |   |   |   |   |   duration > 15: bad (6.37/1.17)
|   |   |   |   |   |   |   |   |   property_magnitude = no known property: good (0.58)
|   |   |   |   |   |   |   |   credit_amount > 4380: bad (4.03)
|   |   |   |   |   |   |   savings_status = 100<=X<500: good (4.62/0.58)
|   |   |   |   |   |   |   savings_status = 500<=X<1000: good (2.34)
|   |   |   |   |   |   |   savings_status = >=1000: good (2.34)
|   |   |   |   |   |   |   savings_status = no known savings
|   |   |   |   |   |   |   |   credit_amount <= 1977: bad (3.45)
|   |   |   |   |   |   |   |   credit_amount > 1977: good (2.34/0.58)
|   |   |   |   |   |   job = high qualif/self emp/mgmt: bad (9.24/2.34)
|   |   |   |   |   purpose = radio/tv
|   |   |   |   |   |   job = unemp/unskilled non res: good (0.58)
|   |   |   |   |   |   job = unskilled resident
|   |   |   |   |   |   |   property_magnitude = real estate
|   |   |   |   |   |   |   |   credit_amount <= 719: good (3.45)
|   |   |   |   |   |   |   |   credit_amount > 719: bad (13.85/2.92)
|   |   |   |   |   |   |   property_magnitude = life insurance: good (3.45)
|   |   |   |   |   |   |   property_magnitude = car: good (2.92/0.58)
|   |   |   |   |   |   |   property_magnitude = no known property: bad (0.58)
|   |   |   |   |   |   job = skilled
|   |   |   |   |   |   |   existing_credits <= 1
|   |   |   |   |   |   |   |   age <= 26
|   |   |   |   |   |   |   |   |   residence_since <= 2
|   |   |   |   |   |   |   |   |   |   credit_amount <= 1459: good (4.09/0.58)
|   |   |   |   |   |   |   |   |   |   credit_amount > 1459: bad (19.64/2.92)
|   |   |   |   |   |   |   |   |   residence_since > 2: good (7.02/1.17)
|   |   |   |   |   |   |   |   age > 26
|   |   |   |   |   |   |   |   |   installment_commitment <= 3: good (13.97)
|   |   |   |   |   |   |   |   |   installment_commitment > 3
|   |   |   |   |   |   |   |   |   |   checking_status = <0: bad (2.92/0.58)
|   |   |   |   |   |   |   |   |   |   checking_status = 0<=X<200: bad (4.62/1.17)
|   |   |   |   |   |   |   |   |   |   checking_status = >=200: good (1.17)
|   |   |   |   |   |   |   |   |   |   checking_status = no checking: good (8.19)
|   |   |   |   |   |   |   existing_credits > 1
|   |   |   |   |   |   |   |   residence_since <= 3: good (2.34/0.58)
|   |   |   |   |   |   |   |   residence_since > 3: bad (4.62)
|   |   |   |   |   |   job = high qualif/self emp/mgmt: good (6.43)
|   |   |   |   |   purpose = domestic appliance
|   |   |   |   |   |   checking_status = <0: bad (2.92/0.58)
|   |   |   |   |   |   checking_status = 0<=X<200: good (0.0)
|   |   |   |   |   |   checking_status = >=200: good (0.58)
|   |   |   |   |   |   checking_status = no checking: good (2.34)
|   |   |   |   |   purpose = repairs
|   |   |   |   |   |   installment_commitment <= 3: good (2.34)
|   |   |   |   |   |   installment_commitment > 3: bad (11.51/1.17)
|   |   |   |   |   purpose = education
|   |   |   |   |   |   checking_status = <0: bad (5.79)
|   |   |   |   |   |   checking_status = 0<=X<200: good (2.34)
|   |   |   |   |   |   checking_status = >=200: good (1.17)
|   |   |   |   |   |   checking_status = no checking: bad (5.2/1.75)
|   |   |   |   |   purpose = vacation: good (0.0)
|   |   |   |   |   purpose = retraining: good (2.92/0.58)
|   |   |   |   |   purpose = business
|   |   |   |   |   |   duration <= 18: good (7.6)
|   |   |   |   |   |   duration > 18
|   |   |   |   |   |   |   age <= 34: good (2.34/0.58)
|   |   |   |   |   |   |   age > 34: bad (7.48)
|   |   |   |   |   purpose = other: good (0.0)
|   |   |   |   other_parties = co applicant
|   |   |   |   |   employment = unemployed: bad (3.45)
|   |   |   |   |   employment = <1: bad (6.9)
|   |   |   |   |   employment = 1<=X<4: good (6.96/1.75)
|   |   |   |   |   employment = 4<=X<7: bad (0.58)
|   |   |   |   |   employment = >=7: good (1.75/0.58)
|   |   |   |   other_parties = guarantor
|   |   |   |   |   savings_status = <100: good (12.28)
|   |   |   |   |   savings_status = 100<=X<500: good (1.17/0.58)
|   |   |   |   |   savings_status = 500<=X<1000: good (0.0)
|   |   |   |   |   savings_status = >=1000: good (0.0)
|   |   |   |   |   savings_status = no known savings: bad (3.45)
|   |   |   foreign_worker = no: good (10.53/0.58)
|   |   credit_amount > 5866
|   |   |   existing_credits <= 1
|   |   |   |   checking_status = <0: bad (21.4/3.51)
|   |   |   |   checking_status = 0<=X<200: bad (15.73/3.51)
|   |   |   |   checking_status = >=200: bad (0.0)
|   |   |   |   checking_status = no checking: good (5.85)
|   |   |   existing_credits > 1: bad (15.55/1.17)
|   credit_history = delayed previously
|   |   installment_commitment <= 3
|   |   |   residence_since <= 1: bad (5.2/0.58)
|   |   |   residence_since > 1: good (30.75/2.34)
|   |   installment_commitment > 3
|   |   |   savings_status = <100
|   |   |   |   existing_credits <= 1: bad (16.13/0.58)
|   |   |   |   existing_credits > 1
|   |   |   |   |   duration <= 18: good (4.62)
|   |   |   |   |   duration > 18: bad (8.65/1.17)
|   |   |   savings_status = 100<=X<500: good (4.62)
|   |   |   savings_status = 500<=X<1000: good (1.17)
|   |   |   savings_status = >=1000: bad (3.45)
|   |   |   savings_status = no known savings
|   |   |   |   credit_amount <= 7308: good (3.51)
|   |   |   |   credit_amount > 7308: bad (3.45)
|   credit_history = critical/other existing credit
|   |   checking_status = <0
|   |   |   personal_status = male div/sep: bad (4.03/0.58)
|   |   |   personal_status = female div/dep/mar
|   |   |   |   property_magnitude = real estate: bad (5.79/1.75)
|   |   |   |   property_magnitude = life insurance: good (2.92)
|   |   |   |   property_magnitude = car: good (1.17/0.58)
|   |   |   |   property_magnitude = no known property: bad (5.79/1.17)
|   |   |   personal_status = male single
|   |   |   |   employment = unemployed: good (4.62)
|   |   |   |   employment = <1: good (1.75)
|   |   |   |   employment = 1<=X<4: good (4.68)
|   |   |   |   employment = 4<=X<7: good (2.92/0.58)
|   |   |   |   employment = >=7
|   |   |   |   |   residence_since <= 3: bad (7.48/0.58)
|   |   |   |   |   residence_since > 3: good (7.6/1.75)
|   |   |   personal_status = male mar/wid: good (5.2)
|   |   |   personal_status = female single: good (0.0)
|   |   checking_status = 0<=X<200
|   |   |   existing_credits <= 2
|   |   |   |   installment_commitment <= 2: bad (19.06/4.09)
|   |   |   |   installment_commitment > 2
|   |   |   |   |   age <= 33: bad (16.78/6.37)
|   |   |   |   |   age > 33: good (10.47)
|   |   |   existing_credits > 2: good (5.2)
|   |   checking_status = >=200
|   |   |   duration <= 11: good (3.51)
|   |   |   duration > 11
|   |   |   |   duration <= 22: bad (10.93/0.58)
|   |   |   |   duration > 22: good (2.92)
|   |   checking_status = no checking
|   |   |   credit_amount <= 6967: good (76.55/3.45)
|   |   |   credit_amount > 6967
|   |   |   |   age <= 32: bad (7.48/0.58)
|   |   |   |   age > 32: good (2.92)

Number of Leaves  : 	128

Size of the tree : 	189


Weight: 1.94

J48 pruned tree
------------------

housing = rent
|   duration <= 42
|   |   savings_status = <100
|   |   |   credit_history = no credits/all paid: bad (3.64)
|   |   |   credit_history = all paid: good (3.33/1.0)
|   |   |   credit_history = existing paid
|   |   |   |   installment_commitment <= 1: good (9.64/1.67)
|   |   |   |   installment_commitment > 1
|   |   |   |   |   age <= 23: bad (18.58/1.67)
|   |   |   |   |   age > 23: good (26.54/7.59)
|   |   |   credit_history = delayed previously: good (4.97/0.33)
|   |   |   credit_history = critical/other existing credit
|   |   |   |   credit_amount <= 2122: good (2.67)
|   |   |   |   credit_amount > 2122: bad (19.14/2.67)
|   |   savings_status = 100<=X<500
|   |   |   credit_history = no credits/all paid: good (0.67/0.33)
|   |   |   credit_history = all paid: bad (0.33)
|   |   |   credit_history = existing paid
|   |   |   |   checking_status = <0: bad (0.0)
|   |   |   |   checking_status = 0<=X<200: bad (6.33/0.33)
|   |   |   |   checking_status = >=200: bad (0.0)
|   |   |   |   checking_status = no checking: good (2.01)
|   |   |   credit_history = delayed previously: good (4.28)
|   |   |   credit_history = critical/other existing credit: good (0.33)
|   |   savings_status = 500<=X<1000
|   |   |   installment_commitment <= 2: good (2.34)
|   |   |   installment_commitment > 2: bad (16.72/1.0)
|   |   savings_status = >=1000
|   |   |   installment_commitment <= 3: good (8.0)
|   |   |   installment_commitment > 3: bad (2.64/0.67)
|   |   savings_status = no known savings
|   |   |   property_magnitude = real estate
|   |   |   |   installment_commitment <= 3: good (11.63)
|   |   |   |   installment_commitment > 3: bad (2.97/0.67)
|   |   |   property_magnitude = life insurance: good (9.0)
|   |   |   property_magnitude = car: bad (5.95/1.67)
|   |   |   property_magnitude = no known property: good (1.0/0.33)
|   duration > 42: bad (11.91)
housing = own
|   duration <= 7
|   |   credit_amount <= 4020: good (51.98/2.64)
|   |   credit_amount > 4020: bad (5.31/0.67)
|   duration > 7
|   |   purpose = new car
|   |   |   savings_status = <100
|   |   |   |   other_payment_plans = bank
|   |   |   |   |   foreign_worker = yes: bad (15.86/0.33)
|   |   |   |   |   foreign_worker = no: good (2.33)
|   |   |   |   other_payment_plans = stores
|   |   |   |   |   property_magnitude = real estate: bad (3.94)
|   |   |   |   |   property_magnitude = life insurance: bad (0.0)
|   |   |   |   |   property_magnitude = car: good (2.33)
|   |   |   |   |   property_magnitude = no known property: bad (0.0)
|   |   |   |   other_payment_plans = none
|   |   |   |   |   other_parties = none
|   |   |   |   |   |   checking_status = <0
|   |   |   |   |   |   |   property_magnitude = real estate: good (9.28/1.34)
|   |   |   |   |   |   |   property_magnitude = life insurance: bad (4.95/0.33)
|   |   |   |   |   |   |   property_magnitude = car: bad (8.31/0.33)
|   |   |   |   |   |   |   property_magnitude = no known property: bad (0.0)
|   |   |   |   |   |   checking_status = 0<=X<200
|   |   |   |   |   |   |   installment_commitment <= 2: good (6.63)
|   |   |   |   |   |   |   installment_commitment > 2: bad (2.01/0.33)
|   |   |   |   |   |   checking_status = >=200: good (2.67)
|   |   |   |   |   |   checking_status = no checking: good (13.99/1.97)
|   |   |   |   |   other_parties = co applicant: bad (3.33/0.33)
|   |   |   |   |   other_parties = guarantor: good (1.0)
|   |   |   savings_status = 100<=X<500
|   |   |   |   duration <= 30: good (39.11/1.34)
|   |   |   |   duration > 30: bad (3.0)
|   |   |   savings_status = 500<=X<1000
|   |   |   |   age <= 29: bad (3.94)
|   |   |   |   age > 29: good (5.67)
|   |   |   savings_status = >=1000: good (4.34)
|   |   |   savings_status = no known savings
|   |   |   |   other_payment_plans = bank: bad (4.28)
|   |   |   |   other_payment_plans = stores: bad (0.0)
|   |   |   |   other_payment_plans = none
|   |   |   |   |   credit_amount <= 1913: bad (7.95/1.0)
|   |   |   |   |   credit_amount > 1913: good (8.67)
|   |   purpose = used car
|   |   |   residence_since <= 1: bad (2.97/1.0)
|   |   |   residence_since > 1
|   |   |   |   age <= 25: bad (3.33/1.0)
|   |   |   |   age > 25: good (34.99/0.33)
|   |   purpose = furniture/equipment
|   |   |   existing_credits <= 1
|   |   |   |   savings_status = <100
|   |   |   |   |   credit_history = no credits/all paid: bad (0.0)
|   |   |   |   |   credit_history = all paid: bad (1.34)
|   |   |   |   |   credit_history = existing paid
|   |   |   |   |   |   num_dependents <= 1
|   |   |   |   |   |   |   checking_status = <0
|   |   |   |   |   |   |   |   duration <= 15: good (3.31)
|   |   |   |   |   |   |   |   duration > 15
|   |   |   |   |   |   |   |   |   installment_commitment <= 3: bad (6.97/0.33)
|   |   |   |   |   |   |   |   |   installment_commitment > 3: good (5.64/1.0)
|   |   |   |   |   |   |   checking_status = 0<=X<200
|   |   |   |   |   |   |   |   personal_status = male div/sep: good (2.31/0.33)
|   |   |   |   |   |   |   |   personal_status = female div/dep/mar: bad (7.33)
|   |   |   |   |   |   |   |   personal_status = male single: bad (1.97)
|   |   |   |   |   |   |   |   personal_status = male mar/wid: good (1.97)
|   |   |   |   |   |   |   |   personal_status = female single: bad (0.0)
|   |   |   |   |   |   |   checking_status = >=200: good (4.0)
|   |   |   |   |   |   |   checking_status = no checking: bad (3.64/1.67)
|   |   |   |   |   |   num_dependents > 1: bad (5.61/1.0)
|   |   |   |   |   credit_history = delayed previously: bad (4.64)
|   |   |   |   |   credit_history = critical/other existing credit
|   |   |   |   |   |   duration <= 22: good (3.67)
|   |   |   |   |   |   duration > 22: bad (2.97/0.33)
|   |   |   |   savings_status = 100<=X<500: bad (2.67/0.33)
|   |   |   |   savings_status = 500<=X<1000: good (1.0)
|   |   |   |   savings_status = >=1000: good (1.67)
|   |   |   |   savings_status = no known savings
|   |   |   |   |   age <= 27: bad (4.64/0.33)
|   |   |   |   |   age > 27: good (9.33/0.33)
|   |   |   existing_credits > 1: good (35.55/8.25)
|   |   purpose = radio/tv
|   |   |   residence_since <= 3
|   |   |   |   credit_history = no credits/all paid: bad (3.94)
|   |   |   |   credit_history = all paid: good (0.0)
|   |   |   |   credit_history = existing paid
|   |   |   |   |   credit_amount <= 5866
|   |   |   |   |   |   other_parties = none
|   |   |   |   |   |   |   checking_status = <0
|   |   |   |   |   |   |   |   savings_status = <100
|   |   |   |   |   |   |   |   |   duration <= 16: good (4.61)
|   |   |   |   |   |   |   |   |   duration > 16: bad (6.31/0.67)
|   |   |   |   |   |   |   |   savings_status = 100<=X<500: bad (5.0)
|   |   |   |   |   |   |   |   savings_status = 500<=X<1000: good (0.33)
|   |   |   |   |   |   |   |   savings_status = >=1000: good (2.33)
|   |   |   |   |   |   |   |   savings_status = no known savings: bad (0.0)
|   |   |   |   |   |   |   checking_status = 0<=X<200
|   |   |   |   |   |   |   |   personal_status = male div/sep: good (0.33)
|   |   |   |   |   |   |   |   personal_status = female div/dep/mar
|   |   |   |   |   |   |   |   |   employment = unemployed: good (0.0)
|   |   |   |   |   |   |   |   |   employment = <1: bad (2.31/0.33)
|   |   |   |   |   |   |   |   |   employment = 1<=X<4: good (6.99)
|   |   |   |   |   |   |   |   |   employment = 4<=X<7: good (0.33)
|   |   |   |   |   |   |   |   |   employment = >=7: good (0.0)
|   |   |   |   |   |   |   |   personal_status = male single
|   |   |   |   |   |   |   |   |   credit_amount <= 1386: bad (6.25/0.33)
|   |   |   |   |   |   |   |   |   credit_amount > 1386: good (4.97)
|   |   |   |   |   |   |   |   personal_status = male mar/wid: bad (2.64)
|   |   |   |   |   |   |   |   personal_status = female single: good (0.0)
|   |   |   |   |   |   |   checking_status = >=200
|   |   |   |   |   |   |   |   job = unemp/unskilled non res: good (0.0)
|   |   |   |   |   |   |   |   job = unskilled resident: bad (4.28/0.33)
|   |   |   |   |   |   |   |   job = skilled
|   |   |   |   |   |   |   |   |   age <= 25: good (9.32)
|   |   |   |   |   |   |   |   |   age > 25: bad (2.31/0.33)
|   |   |   |   |   |   |   |   job = high qualif/self emp/mgmt: good (0.33)
|   |   |   |   |   |   |   checking_status = no checking
|   |   |   |   |   |   |   |   duration <= 10: bad (2.31/0.33)
|   |   |   |   |   |   |   |   duration > 10: good (20.65/1.97)
|   |   |   |   |   |   other_parties = co applicant: bad (2.31/0.33)
|   |   |   |   |   |   other_parties = guarantor: good (5.01)
|   |   |   |   |   credit_amount > 5866: bad (9.22/0.33)
|   |   |   |   credit_history = delayed previously
|   |   |   |   |   own_telephone = none: good (8.0/0.33)
|   |   |   |   |   own_telephone = yes: bad (2.64/0.33)
|   |   |   |   credit_history = critical/other existing credit
|   |   |   |   |   own_telephone = none
|   |   |   |   |   |   num_dependents <= 1
|   |   |   |   |   |   |   checking_status = <0: good (0.0)
|   |   |   |   |   |   |   checking_status = 0<=X<200
|   |   |   |   |   |   |   |   residence_since <= 1: good (2.33)
|   |   |   |   |   |   |   |   residence_since > 1: bad (4.95/0.33)
|   |   |   |   |   |   |   checking_status = >=200: good (0.0)
|   |   |   |   |   |   |   checking_status = no checking: good (6.02)
|   |   |   |   |   |   num_dependents > 1: bad (2.31/0.33)
|   |   |   |   |   own_telephone = yes: good (10.34)
|   |   |   residence_since > 3: good (38.34/3.98)
|   |   purpose = domestic appliance: good (6.67/1.0)
|   |   purpose = repairs
|   |   |   employment = unemployed: good (2.31)
|   |   |   employment = <1: bad (2.31)
|   |   |   employment = 1<=X<4
|   |   |   |   credit_amount <= 1512: bad (3.94)
|   |   |   |   credit_amount > 1512: good (3.67)
|   |   |   employment = 4<=X<7: good (0.67/0.33)
|   |   |   employment = >=7: good (5.0)
|   |   purpose = education
|   |   |   installment_commitment <= 1: good (2.33)
|   |   |   installment_commitment > 1: bad (28.95/3.68)
|   |   purpose = vacation: good (0.0)
|   |   purpose = retraining: good (6.0)
|   |   purpose = business
|   |   |   savings_status = <100
|   |   |   |   credit_amount <= 6681
|   |   |   |   |   installment_commitment <= 3
|   |   |   |   |   |   residence_since <= 3: good (21.58/2.64)
|   |   |   |   |   |   residence_since > 3: bad (3.31/0.67)
|   |   |   |   |   installment_commitment > 3
|   |   |   |   |   |   other_payment_plans = bank: good (0.33)
|   |   |   |   |   |   other_payment_plans = stores
|   |   |   |   |   |   |   employment = unemployed: bad (1.97)
|   |   |   |   |   |   |   employment = <1: good (0.0)
|   |   |   |   |   |   |   employment = 1<=X<4: good (0.0)
|   |   |   |   |   |   |   employment = 4<=X<7: good (2.33)
|   |   |   |   |   |   |   employment = >=7: good (2.33)
|   |   |   |   |   |   other_payment_plans = none: bad (9.56/1.34)
|   |   |   |   credit_amount > 6681: bad (6.94)
|   |   |   savings_status = 100<=X<500: good (7.0)
|   |   |   savings_status = 500<=X<1000
|   |   |   |   checking_status = <0: good (0.0)
|   |   |   |   checking_status = 0<=X<200: good (2.67)
|   |   |   |   checking_status = >=200: good (0.0)
|   |   |   |   checking_status = no checking: bad (2.31/0.33)
|   |   |   savings_status = >=1000
|   |   |   |   property_magnitude = real estate: good (5.33)
|   |   |   |   property_magnitude = life insurance: bad (2.31/0.33)
|   |   |   |   property_magnitude = car: good (0.0)
|   |   |   |   property_magnitude = no known property: good (0.0)
|   |   |   savings_status = no known savings: good (14.94/1.97)
|   |   purpose = other
|   |   |   other_payment_plans = bank: good (5.33/0.67)
|   |   |   other_payment_plans = stores: bad (1.97)
|   |   |   other_payment_plans = none: good (3.0/0.33)
housing = for free
|   installment_commitment <= 2
|   |   age <= 43: good (17.64/0.67)
|   |   age > 43
|   |   |   other_parties = none
|   |   |   |   existing_credits <= 1: bad (10.25/1.67)
|   |   |   |   existing_credits > 1: good (4.0/0.33)
|   |   |   other_parties = co applicant: bad (0.0)
|   |   |   other_parties = guarantor: good (2.33)
|   installment_commitment > 2
|   |   existing_credits <= 1
|   |   |   employment = unemployed: good (9.3/0.33)
|   |   |   employment = <1
|   |   |   |   other_payment_plans = bank: good (2.67)
|   |   |   |   other_payment_plans = stores: bad (0.0)
|   |   |   |   other_payment_plans = none: bad (4.3)
|   |   |   employment = 1<=X<4: bad (9.31/2.01)
|   |   |   employment = 4<=X<7
|   |   |   |   own_telephone = none: bad (4.61)
|   |   |   |   own_telephone = yes: good (2.33)
|   |   |   employment = >=7
|   |   |   |   credit_amount <= 3213
|   |   |   |   |   credit_history = no credits/all paid: bad (1.97)
|   |   |   |   |   credit_history = all paid: bad (0.33)
|   |   |   |   |   credit_history = existing paid: good (10.3)
|   |   |   |   |   credit_history = delayed previously: good (2.31)
|   |   |   |   |   credit_history = critical/other existing credit: good (0.0)
|   |   |   |   credit_amount > 3213: bad (10.25/0.67)
|   |   existing_credits > 1
|   |   |   duration <= 33
|   |   |   |   num_dependents <= 1
|   |   |   |   |   savings_status = <100: good (5.01/0.33)
|   |   |   |   |   savings_status = 100<=X<500: good (0.0)
|   |   |   |   |   savings_status = 500<=X<1000: good (0.0)
|   |   |   |   |   savings_status = >=1000: good (0.0)
|   |   |   |   |   savings_status = no known savings: bad (2.31/0.33)
|   |   |   |   num_dependents > 1: bad (7.95/1.0)
|   |   |   duration > 33: bad (23.74)

Number of Leaves  : 	175

Size of the tree : 	258


Weight: 2.47

J48 pruned tree
------------------

duration <= 15
|   credit_history = no credits/all paid
|   |   existing_credits <= 1: good (2.71)
|   |   existing_credits > 1: bad (7.36/1.26)
|   credit_history = all paid
|   |   checking_status = <0: bad (3.96/0.18)
|   |   checking_status = 0<=X<200: bad (10.22/1.26)
|   |   checking_status = >=200: good (2.33/1.07)
|   |   checking_status = no checking: good (3.97)
|   credit_history = existing paid
|   |   other_parties = none
|   |   |   own_telephone = none
|   |   |   |   other_payment_plans = bank
|   |   |   |   |   job = unemp/unskilled non res: bad (0.0)
|   |   |   |   |   job = unskilled resident
|   |   |   |   |   |   duration <= 13: bad (17.14)
|   |   |   |   |   |   duration > 13: good (2.53)
|   |   |   |   |   job = skilled: good (3.07/0.18)
|   |   |   |   |   job = high qualif/self emp/mgmt: bad (0.0)
|   |   |   |   other_payment_plans = stores: bad (3.22)
|   |   |   |   other_payment_plans = none
|   |   |   |   |   credit_amount <= 1534
|   |   |   |   |   |   purpose = new car
|   |   |   |   |   |   |   credit_amount <= 640: good (3.41)
|   |   |   |   |   |   |   credit_amount > 640
|   |   |   |   |   |   |   |   residence_since <= 2: bad (13.98/0.91)
|   |   |   |   |   |   |   |   residence_since > 2
|   |   |   |   |   |   |   |   |   duration <= 11: bad (2.14)
|   |   |   |   |   |   |   |   |   duration > 11: good (2.51/0.18)
|   |   |   |   |   |   purpose = used car: good (0.36)
|   |   |   |   |   |   purpose = furniture/equipment
|   |   |   |   |   |   |   employment = unemployed: bad (0.0)
|   |   |   |   |   |   |   employment = <1: good (0.54)
|   |   |   |   |   |   |   employment = 1<=X<4: bad (7.37/1.25)
|   |   |   |   |   |   |   employment = 4<=X<7: bad (0.0)
|   |   |   |   |   |   |   employment = >=7: good (3.22)
|   |   |   |   |   |   purpose = radio/tv
|   |   |   |   |   |   |   employment = unemployed: good (0.18)
|   |   |   |   |   |   |   employment = <1: bad (4.14/0.73)
|   |   |   |   |   |   |   employment = 1<=X<4: good (9.49/2.14)
|   |   |   |   |   |   |   employment = 4<=X<7: bad (2.51/0.18)
|   |   |   |   |   |   |   employment = >=7: good (4.32/1.07)
|   |   |   |   |   |   purpose = domestic appliance: bad (3.96/1.63)
|   |   |   |   |   |   purpose = repairs: good (2.7/1.07)
|   |   |   |   |   |   purpose = education: bad (4.48)
|   |   |   |   |   |   purpose = vacation: bad (0.0)
|   |   |   |   |   |   purpose = retraining: bad (1.45/0.18)
|   |   |   |   |   |   purpose = business: good (4.66)
|   |   |   |   |   |   purpose = other: bad (0.0)
|   |   |   |   |   credit_amount > 1534: good (46.38/5.36)
|   |   |   own_telephone = yes
|   |   |   |   credit_amount <= 2538: good (44.05/3.58)
|   |   |   |   credit_amount > 2538
|   |   |   |   |   employment = unemployed: good (3.58/1.25)
|   |   |   |   |   employment = <1: good (2.33)
|   |   |   |   |   employment = 1<=X<4: bad (1.98/0.54)
|   |   |   |   |   employment = 4<=X<7: good (0.18)
|   |   |   |   |   employment = >=7: bad (5.92/0.18)
|   |   other_parties = co applicant: good (8.95/1.07)
|   |   other_parties = guarantor: good (8.83/1.07)
|   credit_history = delayed previously
|   |   age <= 46: good (7.94)
|   |   age > 46: bad (14.99/0.18)
|   credit_history = critical/other existing credit
|   |   age <= 59: good (99.8/10.0)
|   |   age > 59
|   |   |   credit_amount <= 2124: good (3.78)
|   |   |   credit_amount > 2124: bad (12.67)
duration > 15
|   savings_status = <100
|   |   job = unemp/unskilled non res
|   |   |   credit_amount <= 2930: bad (6.99/0.36)
|   |   |   credit_amount > 2930: good (2.14)
|   |   job = unskilled resident
|   |   |   credit_amount <= 6229
|   |   |   |   age <= 47: bad (56.49/2.54)
|   |   |   |   age > 47
|   |   |   |   |   checking_status = <0: bad (3.78/1.25)
|   |   |   |   |   checking_status = 0<=X<200: good (2.33)
|   |   |   |   |   checking_status = >=200: good (0.0)
|   |   |   |   |   checking_status = no checking: good (0.0)
|   |   |   credit_amount > 6229: good (4.15/0.18)
|   |   job = skilled
|   |   |   residence_since <= 1
|   |   |   |   credit_history = no credits/all paid: good (4.67/1.07)
|   |   |   |   credit_history = all paid: good (1.45/0.18)
|   |   |   |   credit_history = existing paid: good (18.12/2.88)
|   |   |   |   credit_history = delayed previously: bad (4.47)
|   |   |   |   credit_history = critical/other existing credit: good (6.11/1.07)
|   |   |   residence_since > 1
|   |   |   |   installment_commitment <= 1
|   |   |   |   |   property_magnitude = real estate: bad (3.22)
|   |   |   |   |   property_magnitude = life insurance: good (5.03/0.18)
|   |   |   |   |   property_magnitude = car: good (5.22/0.18)
|   |   |   |   |   property_magnitude = no known property: good (1.45)
|   |   |   |   installment_commitment > 1
|   |   |   |   |   other_payment_plans = bank: bad (22.15/3.25)
|   |   |   |   |   other_payment_plans = stores
|   |   |   |   |   |   existing_credits <= 1
|   |   |   |   |   |   |   property_magnitude = real estate: bad (3.22)
|   |   |   |   |   |   |   property_magnitude = life insurance: bad (0.18)
|   |   |   |   |   |   |   property_magnitude = car: good (3.41)
|   |   |   |   |   |   |   property_magnitude = no known property: bad (1.07)
|   |   |   |   |   |   existing_credits > 1: bad (15.36/0.18)
|   |   |   |   |   other_payment_plans = none
|   |   |   |   |   |   checking_status = <0: bad (47.76/11.12)
|   |   |   |   |   |   checking_status = 0<=X<200
|   |   |   |   |   |   |   personal_status = male div/sep: bad (2.51)
|   |   |   |   |   |   |   personal_status = female div/dep/mar: good (3.6/0.54)
|   |   |   |   |   |   |   personal_status = male single
|   |   |   |   |   |   |   |   duration <= 26: good (2.53)
|   |   |   |   |   |   |   |   duration > 26: bad (6.81/0.54)
|   |   |   |   |   |   |   personal_status = male mar/wid: bad (0.18)
|   |   |   |   |   |   |   personal_status = female single: bad (0.0)
|   |   |   |   |   |   checking_status = >=200: good (8.44/1.07)
|   |   |   |   |   |   checking_status = no checking
|   |   |   |   |   |   |   age <= 23: bad (4.64/0.36)
|   |   |   |   |   |   |   age > 23: good (21.4/1.07)
|   |   job = high qualif/self emp/mgmt
|   |   |   residence_since <= 1: good (6.29)
|   |   |   residence_since > 1
|   |   |   |   credit_history = no credits/all paid: bad (5.37)
|   |   |   |   credit_history = all paid: good (4.48/1.07)
|   |   |   |   credit_history = existing paid
|   |   |   |   |   existing_credits <= 1
|   |   |   |   |   |   housing = rent: bad (17.33/1.45)
|   |   |   |   |   |   housing = own: good (9.17/2.32)
|   |   |   |   |   |   housing = for free
|   |   |   |   |   |   |   credit_amount <= 7166: good (4.86)
|   |   |   |   |   |   |   credit_amount > 7166: bad (3.58)
|   |   |   |   |   existing_credits > 1: bad (16.96)
|   |   |   |   credit_history = delayed previously: bad (5.91/0.18)
|   |   |   |   credit_history = critical/other existing credit
|   |   |   |   |   employment = unemployed: good (1.99/0.36)
|   |   |   |   |   employment = <1: good (0.18)
|   |   |   |   |   employment = 1<=X<4: bad (3.58/0.18)
|   |   |   |   |   employment = 4<=X<7: good (2.33)
|   |   |   |   |   employment = >=7: good (7.37)
|   savings_status = 100<=X<500
|   |   own_telephone = none
|   |   |   existing_credits <= 1
|   |   |   |   other_parties = none: good (15.09/3.25)
|   |   |   |   other_parties = co applicant: bad (2.53)
|   |   |   |   other_parties = guarantor: bad (1.26)
|   |   |   existing_credits > 1: bad (33.22/2.17)
|   |   own_telephone = yes
|   |   |   age <= 40: good (17.16/0.36)
|   |   |   age > 40: bad (3.07/0.36)
|   savings_status = 500<=X<1000
|   |   credit_amount <= 2384: good (7.37)
|   |   credit_amount > 2384
|   |   |   residence_since <= 1: good (3.41)
|   |   |   residence_since > 1
|   |   |   |   job = unemp/unskilled non res: good (0.18)
|   |   |   |   job = unskilled resident: bad (2.14)
|   |   |   |   job = skilled
|   |   |   |   |   installment_commitment <= 3: bad (37.08/0.91)
|   |   |   |   |   installment_commitment > 3: good (5.91/1.07)
|   |   |   |   job = high qualif/self emp/mgmt: good (1.45)
|   savings_status = >=1000: good (18.0/1.25)
|   savings_status = no known savings
|   |   personal_status = male div/sep
|   |   |   duration <= 36: good (3.59)
|   |   |   duration > 36: bad (12.85/0.18)
|   |   personal_status = female div/dep/mar
|   |   |   job = unemp/unskilled non res: good (1.26)
|   |   |   job = unskilled resident: good (1.63)
|   |   |   job = skilled
|   |   |   |   credit_history = no credits/all paid: bad (1.07)
|   |   |   |   credit_history = all paid: good (0.0)
|   |   |   |   credit_history = existing paid
|   |   |   |   |   age <= 26: good (7.55/0.18)
|   |   |   |   |   age > 26: bad (7.16/1.45)
|   |   |   |   credit_history = delayed previously: good (4.3)
|   |   |   |   credit_history = critical/other existing credit: good (2.15)
|   |   |   job = high qualif/self emp/mgmt: bad (2.32/0.18)
|   |   personal_status = male single
|   |   |   checking_status = <0: bad (7.71/1.99)
|   |   |   checking_status = 0<=X<200
|   |   |   |   credit_amount <= 12204: good (15.29)
|   |   |   |   credit_amount > 12204: bad (2.15)
|   |   |   checking_status = >=200: bad (1.79/0.73)
|   |   |   checking_status = no checking: good (24.64/3.21)
|   |   personal_status = male mar/wid: good (9.15/1.26)
|   |   personal_status = female single: good (0.0)

Number of Leaves  : 	127

Size of the tree : 	186


Weight: 2.33

J48 pruned tree
------------------

foreign_worker = yes
|   other_parties = none
|   |   employment = unemployed
|   |   |   age <= 53
|   |   |   |   residence_since <= 2: bad (42.62/1.78)
|   |   |   |   residence_since > 2
|   |   |   |   |   credit_amount <= 1223: bad (8.13)
|   |   |   |   |   credit_amount > 1223: good (6.66/1.28)
|   |   |   age > 53: good (8.85/1.18)
|   |   employment = <1
|   |   |   savings_status = <100
|   |   |   |   credit_amount <= 409: good (8.31)
|   |   |   |   credit_amount > 409
|   |   |   |   |   other_payment_plans = bank
|   |   |   |   |   |   own_telephone = none: good (2.96/0.1)
|   |   |   |   |   |   own_telephone = yes: bad (2.4/0.1)
|   |   |   |   |   other_payment_plans = stores
|   |   |   |   |   |   credit_amount <= 1424: bad (2.35)
|   |   |   |   |   |   credit_amount > 1424: good (2.89)
|   |   |   |   |   other_payment_plans = none
|   |   |   |   |   |   job = unemp/unskilled non res: bad (6.13)
|   |   |   |   |   |   job = unskilled resident: bad (38.73/2.21)
|   |   |   |   |   |   job = skilled
|   |   |   |   |   |   |   existing_credits <= 1
|   |   |   |   |   |   |   |   num_dependents <= 1: bad (39.82/9.19)
|   |   |   |   |   |   |   |   num_dependents > 1: good (2.2)
|   |   |   |   |   |   |   existing_credits > 1: good (6.11/1.96)
|   |   |   |   |   |   job = high qualif/self emp/mgmt
|   |   |   |   |   |   |   personal_status = male div/sep: good (0.1)
|   |   |   |   |   |   |   personal_status = female div/dep/mar: good (4.17)
|   |   |   |   |   |   |   personal_status = male single: bad (7.71)
|   |   |   |   |   |   |   personal_status = male mar/wid: bad (1.28/0.1)
|   |   |   |   |   |   |   personal_status = female single: bad (0.0)
|   |   |   savings_status = 100<=X<500
|   |   |   |   existing_credits <= 1
|   |   |   |   |   job = unemp/unskilled non res: good (0.0)
|   |   |   |   |   job = unskilled resident: bad (3.38)
|   |   |   |   |   job = skilled: good (7.76/1.02)
|   |   |   |   |   job = high qualif/self emp/mgmt: bad (1.02)
|   |   |   |   existing_credits > 1: bad (4.56)
|   |   |   savings_status = 500<=X<1000
|   |   |   |   residence_since <= 3: good (2.3/0.59)
|   |   |   |   residence_since > 3: bad (10.12)
|   |   |   savings_status = >=1000: good (2.27/0.59)
|   |   |   savings_status = no known savings
|   |   |   |   duration <= 33: good (18.61/1.17)
|   |   |   |   duration > 33: bad (6.72/0.69)
|   |   employment = 1<=X<4
|   |   |   purpose = new car
|   |   |   |   num_dependents <= 1
|   |   |   |   |   credit_history = no credits/all paid: bad (1.28)
|   |   |   |   |   credit_history = all paid: bad (0.1)
|   |   |   |   |   credit_history = existing paid
|   |   |   |   |   |   savings_status = <100
|   |   |   |   |   |   |   residence_since <= 3: bad (4.62/1.48)
|   |   |   |   |   |   |   residence_since > 3: good (2.67/0.1)
|   |   |   |   |   |   savings_status = 100<=X<500: good (0.79/0.1)
|   |   |   |   |   |   savings_status = 500<=X<1000: bad (0.59)
|   |   |   |   |   |   savings_status = >=1000: good (1.02)
|   |   |   |   |   |   savings_status = no known savings: bad (10.5/0.89)
|   |   |   |   |   credit_history = delayed previously: good (3.14)
|   |   |   |   |   credit_history = critical/other existing credit: good (4.53/1.76)
|   |   |   |   num_dependents > 1: good (6.49/0.79)
|   |   |   purpose = used car
|   |   |   |   age <= 26: bad (4.81/1.86)
|   |   |   |   age > 26: good (16.82)
|   |   |   purpose = furniture/equipment
|   |   |   |   age <= 23: bad (18.2/0.4)
|   |   |   |   age > 23
|   |   |   |   |   job = unemp/unskilled non res: good (0.0)
|   |   |   |   |   job = unskilled resident
|   |   |   |   |   |   personal_status = male div/sep: good (7.05)
|   |   |   |   |   |   personal_status = female div/dep/mar: bad (0.79/0.2)
|   |   |   |   |   |   personal_status = male single: bad (14.36/0.79)
|   |   |   |   |   |   personal_status = male mar/wid: bad (0.0)
|   |   |   |   |   |   personal_status = female single: bad (0.0)
|   |   |   |   |   job = skilled: good (28.07/2.17)
|   |   |   |   |   job = high qualif/self emp/mgmt: bad (12.16)
|   |   |   purpose = radio/tv
|   |   |   |   other_payment_plans = bank: bad (3.94/1.49)
|   |   |   |   other_payment_plans = stores: good (8.15)
|   |   |   |   other_payment_plans = none
|   |   |   |   |   checking_status = <0
|   |   |   |   |   |   installment_commitment <= 3: good (4.47/0.99)
|   |   |   |   |   |   installment_commitment > 3: bad (11.65/1.27)
|   |   |   |   |   checking_status = 0<=X<200
|   |   |   |   |   |   installment_commitment <= 1: good (2.08)
|   |   |   |   |   |   installment_commitment > 1: bad (24.27/3.46)
|   |   |   |   |   checking_status = >=200
|   |   |   |   |   |   age <= 25: good (3.26)
|   |   |   |   |   |   age > 25: bad (21.08/2.99)
|   |   |   |   |   checking_status = no checking: good (11.51/0.59)
|   |   |   purpose = domestic appliance: bad (3.58/1.12)
|   |   |   purpose = repairs
|   |   |   |   duration <= 13: bad (6.03)
|   |   |   |   duration > 13: good (2.5/0.59)
|   |   |   purpose = education
|   |   |   |   savings_status = <100: bad (4.62/1.97)
|   |   |   |   savings_status = 100<=X<500: bad (5.95/1.18)
|   |   |   |   savings_status = 500<=X<1000: good (0.0)
|   |   |   |   savings_status = >=1000: good (0.0)
|   |   |   |   savings_status = no known savings: good (5.51)
|   |   |   purpose = vacation: bad (0.0)
|   |   |   purpose = retraining: good (1.39)
|   |   |   purpose = business
|   |   |   |   housing = rent: bad (2.46/0.1)
|   |   |   |   housing = own
|   |   |   |   |   age <= 27: good (4.88/0.2)
|   |   |   |   |   age > 27
|   |   |   |   |   |   checking_status = <0: bad (0.0)
|   |   |   |   |   |   checking_status = 0<=X<200: good (6.3/2.35)
|   |   |   |   |   |   checking_status = >=200: good (0.1)
|   |   |   |   |   |   checking_status = no checking: bad (28.36/2.4)
|   |   |   |   housing = for free: good (1.28)
|   |   |   purpose = other: good (7.13)
|   |   employment = 4<=X<7
|   |   |   existing_credits <= 2: good (98.89/22.6)
|   |   |   existing_credits > 2: bad (7.61/0.89)
|   |   employment = >=7
|   |   |   personal_status = male div/sep: good (4.38/2.07)
|   |   |   personal_status = female div/dep/mar
|   |   |   |   credit_history = no credits/all paid: bad (1.18)
|   |   |   |   credit_history = all paid: bad (2.51)
|   |   |   |   credit_history = existing paid
|   |   |   |   |   installment_commitment <= 2
|   |   |   |   |   |   credit_amount <= 2782: bad (2.29/0.1)
|   |   |   |   |   |   credit_amount > 2782: good (3.1)
|   |   |   |   |   installment_commitment > 2: good (14.11/0.2)
|   |   |   |   credit_history = delayed previously: good (0.1)
|   |   |   |   credit_history = critical/other existing credit
|   |   |   |   |   age <= 35: bad (13.44/0.79)
|   |   |   |   |   age > 35: good (5.03/0.69)
|   |   |   personal_status = male single
|   |   |   |   purpose = new car: bad (39.41/6.25)
|   |   |   |   purpose = used car: good (17.23/2.17)
|   |   |   |   purpose = furniture/equipment
|   |   |   |   |   checking_status = <0: bad (16.16/0.1)
|   |   |   |   |   checking_status = 0<=X<200: good (2.46)
|   |   |   |   |   checking_status = >=200: bad (0.0)
|   |   |   |   |   checking_status = no checking: good (13.21)
|   |   |   |   purpose = radio/tv
|   |   |   |   |   credit_history = no credits/all paid: good (0.0)
|   |   |   |   |   credit_history = all paid: good (0.79)
|   |   |   |   |   credit_history = existing paid
|   |   |   |   |   |   existing_credits <= 1
|   |   |   |   |   |   |   credit_amount <= 802: bad (7.9/0.69)
|   |   |   |   |   |   |   credit_amount > 802: good (13.51)
|   |   |   |   |   |   existing_credits > 1: bad (14.1/0.2)
|   |   |   |   |   credit_history = delayed previously: good (0.79)
|   |   |   |   |   credit_history = critical/other existing credit: good (8.31)
|   |   |   |   purpose = domestic appliance: bad (0.0)
|   |   |   |   purpose = repairs: good (2.07/0.59)
|   |   |   |   purpose = education
|   |   |   |   |   age <= 43: bad (7.3/0.1)
|   |   |   |   |   age > 43: good (5.02/0.1)
|   |   |   |   purpose = vacation: bad (0.0)
|   |   |   |   purpose = retraining: good (1.02)
|   |   |   |   purpose = business
|   |   |   |   |   residence_since <= 3: good (7.92)
|   |   |   |   |   residence_since > 3: bad (2.86/0.89)
|   |   |   |   purpose = other: good (1.77/0.59)
|   |   |   personal_status = male mar/wid: good (16.1)
|   |   |   personal_status = female single: good (0.0)
|   other_parties = co applicant
|   |   housing = rent: bad (17.96/1.12)
|   |   housing = own
|   |   |   residence_since <= 1: bad (7.81/0.1)
|   |   |   residence_since > 1
|   |   |   |   checking_status = <0: good (6.04/1.82)
|   |   |   |   checking_status = 0<=X<200: bad (3.38)
|   |   |   |   checking_status = >=200: bad (0.59)
|   |   |   |   checking_status = no checking: good (3.06)
|   |   housing = for free: good (3.15/0.69)
|   other_parties = guarantor
|   |   duration <= 42
|   |   |   savings_status = <100: good (30.35/2.55)
|   |   |   savings_status = 100<=X<500: good (0.1)
|   |   |   savings_status = 500<=X<1000: good (0.0)
|   |   |   savings_status = >=1000: good (0.0)
|   |   |   savings_status = no known savings
|   |   |   |   property_magnitude = real estate: good (2.18)
|   |   |   |   property_magnitude = life insurance: bad (6.03)
|   |   |   |   property_magnitude = car: bad (0.0)
|   |   |   |   property_magnitude = no known property: bad (0.0)
|   |   duration > 42: bad (7.31)
foreign_worker = no: good (24.84/3.04)

Number of Leaves  : 	130

Size of the tree : 	187


Weight: 2.18

J48 pruned tree
------------------

credit_amount <= 601
|   num_dependents <= 1: good (31.27/0.98)
|   num_dependents > 1: bad (3.43/0.54)
credit_amount > 601
|   checking_status = <0
|   |   employment = unemployed
|   |   |   own_telephone = none
|   |   |   |   credit_amount <= 2415: bad (15.2)
|   |   |   |   credit_amount > 2415: good (2.2/0.66)
|   |   |   own_telephone = yes: good (5.28/0.49)
|   |   employment = <1
|   |   |   savings_status = <100
|   |   |   |   age <= 22: good (14.69/0.39)
|   |   |   |   age > 22
|   |   |   |   |   duration <= 40: bad (22.46/4.55)
|   |   |   |   |   duration > 40: good (3.86/0.44)
|   |   |   savings_status = 100<=X<500: bad (0.57)
|   |   |   savings_status = 500<=X<1000: bad (3.35)
|   |   |   savings_status = >=1000: good (0.39)
|   |   |   savings_status = no known savings: good (8.98)
|   |   employment = 1<=X<4
|   |   |   property_magnitude = real estate
|   |   |   |   personal_status = male div/sep
|   |   |   |   |   own_telephone = none: good (4.54)
|   |   |   |   |   own_telephone = yes: bad (3.35)
|   |   |   |   personal_status = female div/dep/mar: bad (14.36)
|   |   |   |   personal_status = male single: good (8.6/0.49)
|   |   |   |   personal_status = male mar/wid: good (6.49/0.71)
|   |   |   |   personal_status = female single: bad (0.0)
|   |   |   property_magnitude = life insurance
|   |   |   |   housing = rent: bad (4.04/0.44)
|   |   |   |   housing = own: good (16.08/1.31)
|   |   |   |   housing = for free: good (0.0)
|   |   |   property_magnitude = car: bad (26.13/4.35)
|   |   |   property_magnitude = no known property: bad (5.95/0.57)
|   |   employment = 4<=X<7
|   |   |   num_dependents <= 1: bad (73.17/6.6)
|   |   |   num_dependents > 1: good (9.95/1.85)
|   |   employment = >=7
|   |   |   personal_status = male div/sep: bad (2.94/0.06)
|   |   |   personal_status = female div/dep/mar
|   |   |   |   other_payment_plans = bank: bad (0.82)
|   |   |   |   other_payment_plans = stores: bad (3.41)
|   |   |   |   other_payment_plans = none: good (7.87/0.06)
|   |   |   personal_status = male single
|   |   |   |   num_dependents <= 1
|   |   |   |   |   age <= 61: bad (37.2/2.24)
|   |   |   |   |   age > 61: good (4.81/0.77)
|   |   |   |   num_dependents > 1
|   |   |   |   |   installment_commitment <= 1: bad (2.94/0.06)
|   |   |   |   |   installment_commitment > 1: good (9.91/0.71)
|   |   |   personal_status = male mar/wid: good (6.8)
|   |   |   personal_status = female single: bad (0.0)
|   checking_status = 0<=X<200
|   |   job = unemp/unskilled non res: good (9.44/0.62)
|   |   job = unskilled resident
|   |   |   duration <= 11: good (19.21/0.66)
|   |   |   duration > 11
|   |   |   |   other_parties = none
|   |   |   |   |   savings_status = <100
|   |   |   |   |   |   age <= 37: bad (19.93/1.16)
|   |   |   |   |   |   age > 37: good (3.55/0.33)
|   |   |   |   |   savings_status = 100<=X<500: bad (10.58/0.82)
|   |   |   |   |   savings_status = 500<=X<1000: bad (3.68)
|   |   |   |   |   savings_status = >=1000: good (0.71)
|   |   |   |   |   savings_status = no known savings: good (1.26)
|   |   |   |   other_parties = co applicant: bad (0.0)
|   |   |   |   other_parties = guarantor: good (2.26)
|   |   job = skilled
|   |   |   purpose = new car
|   |   |   |   installment_commitment <= 3
|   |   |   |   |   other_payment_plans = bank: good (2.77/0.49)
|   |   |   |   |   other_payment_plans = stores: bad (0.0)
|   |   |   |   |   other_payment_plans = none: bad (21.34/2.19)
|   |   |   |   installment_commitment > 3
|   |   |   |   |   other_payment_plans = bank: bad (3.09)
|   |   |   |   |   other_payment_plans = stores: good (0.0)
|   |   |   |   |   other_payment_plans = none: good (14.86/0.82)
|   |   |   purpose = used car: good (10.8/2.28)
|   |   |   purpose = furniture/equipment
|   |   |   |   personal_status = male div/sep: bad (5.8)
|   |   |   |   personal_status = female div/dep/mar: bad (18.8/0.94)
|   |   |   |   personal_status = male single
|   |   |   |   |   duration <= 27: good (2.52)
|   |   |   |   |   duration > 27: bad (2.94/0.06)
|   |   |   |   personal_status = male mar/wid: good (2.89)
|   |   |   |   personal_status = female single: bad (0.0)
|   |   |   purpose = radio/tv
|   |   |   |   savings_status = <100: bad (24.84/3.91)
|   |   |   |   savings_status = 100<=X<500: bad (10.71/0.65)
|   |   |   |   savings_status = 500<=X<1000: good (1.06)
|   |   |   |   savings_status = >=1000: bad (0.57)
|   |   |   |   savings_status = no known savings
|   |   |   |   |   duration <= 13: bad (3.35)
|   |   |   |   |   duration > 13: good (5.1)
|   |   |   purpose = domestic appliance: good (0.39)
|   |   |   purpose = repairs: bad (6.35/0.11)
|   |   |   purpose = education
|   |   |   |   installment_commitment <= 3: good (2.08/0.06)
|   |   |   |   installment_commitment > 3: bad (4.56/0.66)
|   |   |   purpose = vacation: bad (0.0)
|   |   |   purpose = retraining: good (0.57)
|   |   |   purpose = business
|   |   |   |   savings_status = <100: bad (7.52/1.97)
|   |   |   |   savings_status = 100<=X<500: good (4.79)
|   |   |   |   savings_status = 500<=X<1000: good (0.44)
|   |   |   |   savings_status = >=1000: good (0.39)
|   |   |   |   savings_status = no known savings: good (1.15)
|   |   |   purpose = other: good (3.97)
|   |   job = high qualif/self emp/mgmt
|   |   |   housing = rent
|   |   |   |   credit_amount <= 6999: good (4.9)
|   |   |   |   credit_amount > 6999: bad (2.27/0.39)
|   |   |   housing = own: bad (37.42/4.56)
|   |   |   housing = for free
|   |   |   |   personal_status = male div/sep: bad (0.0)
|   |   |   |   personal_status = female div/dep/mar: bad (7.72)
|   |   |   |   personal_status = male single: good (2.56/0.38)
|   |   |   |   personal_status = male mar/wid: bad (0.0)
|   |   |   |   personal_status = female single: bad (0.0)
|   checking_status = >=200
|   |   num_dependents <= 1
|   |   |   duration <= 22
|   |   |   |   purpose = new car
|   |   |   |   |   existing_credits <= 2: good (6.92)
|   |   |   |   |   existing_credits > 2: bad (3.41/0.06)
|   |   |   |   purpose = used car: good (0.39)
|   |   |   |   purpose = furniture/equipment: good (2.48)
|   |   |   |   purpose = radio/tv: bad (13.04/2.32)
|   |   |   |   purpose = domestic appliance: good (0.49)
|   |   |   |   purpose = repairs: bad (0.0)
|   |   |   |   purpose = education: bad (4.33/0.98)
|   |   |   |   purpose = vacation: bad (0.0)
|   |   |   |   purpose = retraining: bad (0.0)
|   |   |   |   purpose = business: bad (3.41/0.06)
|   |   |   |   purpose = other: bad (0.0)
|   |   |   duration > 22
|   |   |   |   duration <= 27: good (23.99)
|   |   |   |   duration > 27
|   |   |   |   |   credit_amount <= 4308: bad (4.69/1.01)
|   |   |   |   |   credit_amount > 4308: good (2.08)
|   |   num_dependents > 1: bad (7.22/0.79)
|   checking_status = no checking
|   |   purpose = new car
|   |   |   age <= 47
|   |   |   |   other_payment_plans = bank: bad (12.78/0.44)
|   |   |   |   other_payment_plans = stores: bad (3.27/0.39)
|   |   |   |   other_payment_plans = none
|   |   |   |   |   residence_since <= 3: good (8.65/0.65)
|   |   |   |   |   residence_since > 3
|   |   |   |   |   |   job = unemp/unskilled non res: bad (0.0)
|   |   |   |   |   |   job = unskilled resident: bad (7.44/0.22)
|   |   |   |   |   |   job = skilled: good (2.68)
|   |   |   |   |   |   job = high qualif/self emp/mgmt: bad (4.93/1.58)
|   |   |   age > 47
|   |   |   |   age <= 66: good (22.59)
|   |   |   |   age > 66: bad (3.35)
|   |   purpose = used car: good (19.77/0.65)
|   |   purpose = furniture/equipment
|   |   |   duration <= 30
|   |   |   |   duration <= 11: bad (13.79/3.22)
|   |   |   |   duration > 11: good (25.26/3.54)
|   |   |   duration > 30: bad (10.73/0.62)
|   |   purpose = radio/tv
|   |   |   property_magnitude = real estate: good (15.01)
|   |   |   property_magnitude = life insurance
|   |   |   |   num_dependents <= 1: good (2.55)
|   |   |   |   num_dependents > 1: bad (3.47/0.11)
|   |   |   property_magnitude = car
|   |   |   |   existing_credits <= 1
|   |   |   |   |   duration <= 10: bad (2.94/0.06)
|   |   |   |   |   duration > 10: good (7.84)
|   |   |   |   existing_credits > 1: bad (16.92/3.41)
|   |   |   property_magnitude = no known property: good (2.63)
|   |   purpose = domestic appliance: good (6.15)
|   |   purpose = repairs: bad (4.21/0.99)
|   |   purpose = education
|   |   |   age <= 30: bad (2.28)
|   |   |   age > 30: good (24.94/0.98)
|   |   purpose = vacation: good (0.0)
|   |   purpose = retraining: good (5.53)
|   |   purpose = business
|   |   |   employment = unemployed: bad (3.68)
|   |   |   employment = <1: bad (9.46)
|   |   |   employment = 1<=X<4
|   |   |   |   credit_history = no credits/all paid: bad (3.87)
|   |   |   |   credit_history = all paid: good (0.39)
|   |   |   |   credit_history = existing paid: bad (7.77/0.54)
|   |   |   |   credit_history = delayed previously
|   |   |   |   |   personal_status = male div/sep: good (0.0)
|   |   |   |   |   personal_status = female div/dep/mar: good (0.06)
|   |   |   |   |   personal_status = male single: good (7.41)
|   |   |   |   |   personal_status = male mar/wid: bad (3.35)
|   |   |   |   |   personal_status = female single: good (0.0)
|   |   |   |   credit_history = critical/other existing credit: good (5.8)
|   |   |   employment = 4<=X<7: good (3.09)
|   |   |   employment = >=7: good (2.38)
|   |   purpose = other: good (0.39)

Number of Leaves  : 	140

Size of the tree : 	199


Weight: 2.53

J48 pruned tree
------------------

installment_commitment <= 2
|   residence_since <= 1
|   |   housing = rent: bad (5.67)
|   |   housing = own
|   |   |   credit_history = no credits/all paid: good (5.43)
|   |   |   credit_history = all paid: bad (4.95/0.21)
|   |   |   credit_history = existing paid
|   |   |   |   existing_credits <= 1
|   |   |   |   |   employment = unemployed: bad (3.95)
|   |   |   |   |   employment = <1: good (7.46/0.79)
|   |   |   |   |   employment = 1<=X<4
|   |   |   |   |   |   property_magnitude = real estate: bad (2.36/0.37)
|   |   |   |   |   |   property_magnitude = life insurance: good (0.35)
|   |   |   |   |   |   property_magnitude = car: good (3.01)
|   |   |   |   |   |   property_magnitude = no known property: good (0.0)
|   |   |   |   |   employment = 4<=X<7: bad (3.45/0.73)
|   |   |   |   |   employment = >=7: good (3.58)
|   |   |   |   existing_credits > 1: bad (3.37)
|   |   |   credit_history = delayed previously: bad (5.54/0.58)
|   |   |   credit_history = critical/other existing credit: good (5.6)
|   |   housing = for free: good (0.4)
|   residence_since > 1
|   |   job = unemp/unskilled non res
|   |   |   property_magnitude = real estate: good (2.36)
|   |   |   property_magnitude = life insurance: bad (4.38/0.53)
|   |   |   property_magnitude = car: good (0.31)
|   |   |   property_magnitude = no known property: bad (3.89/0.4)
|   |   job = unskilled resident
|   |   |   duration <= 22: good (62.27/6.46)
|   |   |   duration > 22
|   |   |   |   residence_since <= 3: good (4.11)
|   |   |   |   residence_since > 3: bad (8.46/0.91)
|   |   job = skilled
|   |   |   other_parties = none
|   |   |   |   num_dependents <= 1
|   |   |   |   |   credit_history = no credits/all paid
|   |   |   |   |   |   age <= 42: good (7.67/0.78)
|   |   |   |   |   |   age > 42: bad (3.31)
|   |   |   |   |   credit_history = all paid
|   |   |   |   |   |   checking_status = <0: good (2.61)
|   |   |   |   |   |   checking_status = 0<=X<200: bad (3.16)
|   |   |   |   |   |   checking_status = >=200: bad (0.0)
|   |   |   |   |   |   checking_status = no checking: bad (0.0)
|   |   |   |   |   credit_history = existing paid
|   |   |   |   |   |   existing_credits <= 1
|   |   |   |   |   |   |   personal_status = male div/sep
|   |   |   |   |   |   |   |   residence_since <= 3: bad (2.75/0.03)
|   |   |   |   |   |   |   |   residence_since > 3: good (3.45)
|   |   |   |   |   |   |   personal_status = female div/dep/mar
|   |   |   |   |   |   |   |   duration <= 12
|   |   |   |   |   |   |   |   |   purpose = new car: bad (2.42/0.21)
|   |   |   |   |   |   |   |   |   purpose = used car: good (0.38)
|   |   |   |   |   |   |   |   |   purpose = furniture/equipment: bad (4.41/0.37)
|   |   |   |   |   |   |   |   |   purpose = radio/tv: good (0.21)
|   |   |   |   |   |   |   |   |   purpose = domestic appliance: good (0.26)
|   |   |   |   |   |   |   |   |   purpose = repairs: bad (0.0)
|   |   |   |   |   |   |   |   |   purpose = education: good (1.84)
|   |   |   |   |   |   |   |   |   purpose = vacation: bad (0.0)
|   |   |   |   |   |   |   |   |   purpose = retraining: bad (0.0)
|   |   |   |   |   |   |   |   |   purpose = business: bad (0.0)
|   |   |   |   |   |   |   |   |   purpose = other: bad (0.0)
|   |   |   |   |   |   |   |   duration > 12: good (18.96/1.23)
|   |   |   |   |   |   |   personal_status = male single: good (23.85/0.79)
|   |   |   |   |   |   |   personal_status = male mar/wid
|   |   |   |   |   |   |   |   age <= 20: bad (2.14)
|   |   |   |   |   |   |   |   age > 20: good (6.66/0.31)
|   |   |   |   |   |   |   personal_status = female single: good (0.0)
|   |   |   |   |   |   existing_credits > 1
|   |   |   |   |   |   |   residence_since <= 3: good (3.67)
|   |   |   |   |   |   |   residence_since > 3: bad (4.16)
|   |   |   |   |   credit_history = delayed previously: good (26.84/0.18)
|   |   |   |   |   credit_history = critical/other existing credit
|   |   |   |   |   |   purpose = new car: bad (3.59/0.3)
|   |   |   |   |   |   purpose = used car: good (5.96)
|   |   |   |   |   |   purpose = furniture/equipment
|   |   |   |   |   |   |   duration <= 24: good (5.7)
|   |   |   |   |   |   |   duration > 24: bad (5.59)
|   |   |   |   |   |   purpose = radio/tv: good (5.09)
|   |   |   |   |   |   purpose = domestic appliance: good (0.0)
|   |   |   |   |   |   purpose = repairs: good (0.0)
|   |   |   |   |   |   purpose = education: good (2.05)
|   |   |   |   |   |   purpose = vacation: good (0.0)
|   |   |   |   |   |   purpose = retraining: good (0.0)
|   |   |   |   |   |   purpose = business: good (2.85)
|   |   |   |   |   |   purpose = other: good (0.0)
|   |   |   |   num_dependents > 1
|   |   |   |   |   property_magnitude = real estate: good (2.18)
|   |   |   |   |   property_magnitude = life insurance: bad (6.74/0.06)
|   |   |   |   |   property_magnitude = car: bad (2.94/0.85)
|   |   |   |   |   property_magnitude = no known property: good (2.39/0.37)
|   |   |   other_parties = co applicant: bad (5.09/0.65)
|   |   |   other_parties = guarantor
|   |   |   |   credit_history = no credits/all paid: good (2.14)
|   |   |   |   credit_history = all paid: good (2.79/0.18)
|   |   |   |   credit_history = existing paid: good (3.71)
|   |   |   |   credit_history = delayed previously: good (0.0)
|   |   |   |   credit_history = critical/other existing credit: bad (3.12)
|   |   job = high qualif/self emp/mgmt
|   |   |   savings_status = <100
|   |   |   |   other_payment_plans = bank: bad (9.03/0.92)
|   |   |   |   other_payment_plans = stores: bad (3.13)
|   |   |   |   other_payment_plans = none
|   |   |   |   |   personal_status = male div/sep: bad (3.58/0.21)
|   |   |   |   |   personal_status = female div/dep/mar: bad (2.76/0.21)
|   |   |   |   |   personal_status = male single: good (14.14/0.35)
|   |   |   |   |   personal_status = male mar/wid: bad (0.62/0.26)
|   |   |   |   |   personal_status = female single: good (0.0)
|   |   |   savings_status = 100<=X<500: bad (0.59/0.03)
|   |   |   savings_status = 500<=X<1000: good (2.61)
|   |   |   savings_status = >=1000: bad (1.81)
|   |   |   savings_status = no known savings: good (8.99)
installment_commitment > 2
|   duration <= 39
|   |   age <= 22
|   |   |   credit_history = no credits/all paid: bad (0.0)
|   |   |   credit_history = all paid: good (0.53)
|   |   |   credit_history = existing paid
|   |   |   |   purpose = new car: bad (3.13/0.66)
|   |   |   |   purpose = used car: bad (0.0)
|   |   |   |   purpose = furniture/equipment: good (3.57)
|   |   |   |   purpose = radio/tv: bad (13.51/0.76)
|   |   |   |   purpose = domestic appliance: bad (0.35)
|   |   |   |   purpose = repairs: good (0.64)
|   |   |   |   purpose = education: bad (0.0)
|   |   |   |   purpose = vacation: bad (0.0)
|   |   |   |   purpose = retraining: bad (1.84)
|   |   |   |   purpose = business: good (0.35)
|   |   |   |   purpose = other: bad (0.0)
|   |   |   credit_history = delayed previously: bad (19.79/0.26)
|   |   |   credit_history = critical/other existing credit: good (5.43)
|   |   age > 22
|   |   |   housing = rent
|   |   |   |   checking_status = <0
|   |   |   |   |   purpose = new car: bad (8.19/0.03)
|   |   |   |   |   purpose = used car: bad (0.0)
|   |   |   |   |   purpose = furniture/equipment: bad (7.2/1.28)
|   |   |   |   |   purpose = radio/tv
|   |   |   |   |   |   property_magnitude = real estate: good (1.81)
|   |   |   |   |   |   property_magnitude = life insurance: good (4.23/0.03)
|   |   |   |   |   |   property_magnitude = car: bad (4.2)
|   |   |   |   |   |   property_magnitude = no known property: good (0.0)
|   |   |   |   |   purpose = domestic appliance: bad (0.03)
|   |   |   |   |   purpose = repairs: bad (0.0)
|   |   |   |   |   purpose = education: good (2.96/0.35)
|   |   |   |   |   purpose = vacation: bad (0.0)
|   |   |   |   |   purpose = retraining: bad (0.0)
|   |   |   |   |   purpose = business: bad (0.35)
|   |   |   |   |   purpose = other: bad (0.0)
|   |   |   |   checking_status = 0<=X<200
|   |   |   |   |   employment = unemployed: bad (0.0)
|   |   |   |   |   employment = <1: bad (23.6/0.47)
|   |   |   |   |   employment = 1<=X<4: good (0.71/0.35)
|   |   |   |   |   employment = 4<=X<7: good (11.71)
|   |   |   |   |   employment = >=7: bad (1.87/0.03)
|   |   |   |   checking_status = >=200: good (9.95)
|   |   |   |   checking_status = no checking: good (16.31/4.02)
|   |   |   housing = own
|   |   |   |   foreign_worker = yes
|   |   |   |   |   age <= 47
|   |   |   |   |   |   purpose = new car
|   |   |   |   |   |   |   other_payment_plans = bank: bad (9.9)
|   |   |   |   |   |   |   other_payment_plans = stores: bad (1.73)
|   |   |   |   |   |   |   other_payment_plans = none
|   |   |   |   |   |   |   |   own_telephone = none
|   |   |   |   |   |   |   |   |   num_dependents <= 1
|   |   |   |   |   |   |   |   |   |   personal_status = male div/sep: bad (3.31)
|   |   |   |   |   |   |   |   |   |   personal_status = female div/dep/mar: bad (7.34/0.67)
|   |   |   |   |   |   |   |   |   |   personal_status = male single
|   |   |   |   |   |   |   |   |   |   |   employment = unemployed: good (0.0)
|   |   |   |   |   |   |   |   |   |   |   employment = <1: good (7.43)
|   |   |   |   |   |   |   |   |   |   |   employment = 1<=X<4: bad (3.14/0.94)
|   |   |   |   |   |   |   |   |   |   |   employment = 4<=X<7: bad (3.13)
|   |   |   |   |   |   |   |   |   |   |   employment = >=7
|   |   |   |   |   |   |   |   |   |   |   |   property_magnitude = real estate: good (5.72/2.14)
|   |   |   |   |   |   |   |   |   |   |   |   property_magnitude = life insurance: bad (2.08/0.26)
|   |   |   |   |   |   |   |   |   |   |   |   property_magnitude = car: bad (0.0)
|   |   |   |   |   |   |   |   |   |   |   |   property_magnitude = no known property: bad (0.0)
|   |   |   |   |   |   |   |   |   |   personal_status = male mar/wid: good (2.65/0.82)
|   |   |   |   |   |   |   |   |   |   personal_status = female single: bad (0.0)
|   |   |   |   |   |   |   |   |   num_dependents > 1: bad (9.75/0.7)
|   |   |   |   |   |   |   |   own_telephone = yes
|   |   |   |   |   |   |   |   |   checking_status = <0: good (13.89/0.4)
|   |   |   |   |   |   |   |   |   checking_status = 0<=X<200: bad (2.67/0.55)
|   |   |   |   |   |   |   |   |   checking_status = >=200: bad (1.81)
|   |   |   |   |   |   |   |   |   checking_status = no checking: good (7.65)
|   |   |   |   |   |   purpose = used car: good (11.72/1.84)
|   |   |   |   |   |   purpose = furniture/equipment
|   |   |   |   |   |   |   credit_history = no credits/all paid: good (0.0)
|   |   |   |   |   |   |   credit_history = all paid: bad (0.93/0.37)
|   |   |   |   |   |   |   credit_history = existing paid
|   |   |   |   |   |   |   |   savings_status = <100: bad (28.8/5.76)
|   |   |   |   |   |   |   |   savings_status = 100<=X<500: good (0.35)
|   |   |   |   |   |   |   |   savings_status = 500<=X<1000: bad (0.0)
|   |   |   |   |   |   |   |   savings_status = >=1000: good (0.75)
|   |   |   |   |   |   |   |   savings_status = no known savings: good (4.23/0.35)
|   |   |   |   |   |   |   credit_history = delayed previously: good (4.33/0.47)
|   |   |   |   |   |   |   credit_history = critical/other existing credit: good (13.02)
|   |   |   |   |   |   purpose = radio/tv
|   |   |   |   |   |   |   num_dependents <= 1
|   |   |   |   |   |   |   |   savings_status = <100
|   |   |   |   |   |   |   |   |   own_telephone = none: good (46.48/4.59)
|   |   |   |   |   |   |   |   |   own_telephone = yes
|   |   |   |   |   |   |   |   |   |   employment = unemployed: good (0.0)
|   |   |   |   |   |   |   |   |   |   employment = <1: good (5.97/0.53)
|   |   |   |   |   |   |   |   |   |   employment = 1<=X<4: bad (5.24/0.03)
|   |   |   |   |   |   |   |   |   |   employment = 4<=X<7: good (0.78)
|   |   |   |   |   |   |   |   |   |   employment = >=7: good (0.78)
|   |   |   |   |   |   |   |   savings_status = 100<=X<500: bad (3.59/0.79)
|   |   |   |   |   |   |   |   savings_status = 500<=X<1000: bad (3.58/1.32)
|   |   |   |   |   |   |   |   savings_status = >=1000: good (0.64)
|   |   |   |   |   |   |   |   savings_status = no known savings: good (11.5)
|   |   |   |   |   |   |   num_dependents > 1
|   |   |   |   |   |   |   |   residence_since <= 3: bad (6.45/1.02)
|   |   |   |   |   |   |   |   residence_since > 3: good (3.88/0.35)
|   |   |   |   |   |   purpose = domestic appliance
|   |   |   |   |   |   |   own_telephone = none: good (4.5)
|   |   |   |   |   |   |   own_telephone = yes: bad (4.47/0.03)
|   |   |   |   |   |   purpose = repairs
|   |   |   |   |   |   |   age <= 27: good (3.54/0.18)
|   |   |   |   |   |   |   age > 27: bad (5.53/0.58)
|   |   |   |   |   |   purpose = education
|   |   |   |   |   |   |   credit_history = no credits/all paid: bad (0.0)
|   |   |   |   |   |   |   credit_history = all paid: bad (0.0)
|   |   |   |   |   |   |   credit_history = existing paid: bad (9.77/0.71)
|   |   |   |   |   |   |   credit_history = delayed previously: bad (0.37)
|   |   |   |   |   |   |   credit_history = critical/other existing credit: good (8.03/1.4)
|   |   |   |   |   |   purpose = vacation: good (0.0)
|   |   |   |   |   |   purpose = retraining: good (3.6)
|   |   |   |   |   |   purpose = business
|   |   |   |   |   |   |   checking_status = <0: good (4.8)
|   |   |   |   |   |   |   checking_status = 0<=X<200: good (15.74/1.82)
|   |   |   |   |   |   |   checking_status = >=200: bad (1.81)
|   |   |   |   |   |   |   checking_status = no checking
|   |   |   |   |   |   |   |   duration <= 22: bad (6.01/0.83)
|   |   |   |   |   |   |   |   duration > 22: good (4.61)
|   |   |   |   |   |   purpose = other: bad (1.77/0.21)
|   |   |   |   |   age > 47
|   |   |   |   |   |   credit_history = no credits/all paid: bad (0.21)
|   |   |   |   |   |   credit_history = all paid
|   |   |   |   |   |   |   employment = unemployed: bad (2.21)
|   |   |   |   |   |   |   employment = <1: good (0.0)
|   |   |   |   |   |   |   employment = 1<=X<4: good (0.0)
|   |   |   |   |   |   |   employment = 4<=X<7: good (4.16)
|   |   |   |   |   |   |   employment = >=7: good (0.0)
|   |   |   |   |   |   credit_history = existing paid: good (31.26/2.2)
|   |   |   |   |   |   credit_history = delayed previously: bad (2.44/0.35)
|   |   |   |   |   |   credit_history = critical/other existing credit
|   |   |   |   |   |   |   installment_commitment <= 3
|   |   |   |   |   |   |   |   checking_status = <0: bad (2.09)
|   |   |   |   |   |   |   |   checking_status = 0<=X<200: good (0.0)
|   |   |   |   |   |   |   |   checking_status = >=200: good (0.0)
|   |   |   |   |   |   |   |   checking_status = no checking: good (2.72)
|   |   |   |   |   |   |   installment_commitment > 3: good (22.14/0.21)
|   |   |   |   foreign_worker = no: good (10.21)
|   |   |   housing = for free
|   |   |   |   num_dependents <= 1
|   |   |   |   |   personal_status = male div/sep: good (0.06/0.03)
|   |   |   |   |   personal_status = female div/dep/mar: bad (8.25/1.08)
|   |   |   |   |   personal_status = male single
|   |   |   |   |   |   own_telephone = none: good (7.89/0.62)
|   |   |   |   |   |   own_telephone = yes
|   |   |   |   |   |   |   other_parties = none
|   |   |   |   |   |   |   |   installment_commitment <= 3: bad (5.8)
|   |   |   |   |   |   |   |   installment_commitment > 3
|   |   |   |   |   |   |   |   |   duration <= 30
|   |   |   |   |   |   |   |   |   |   savings_status = <100: good (4.9/0.18)
|   |   |   |   |   |   |   |   |   |   savings_status = 100<=X<500: good (0.0)
|   |   |   |   |   |   |   |   |   |   savings_status = 500<=X<1000: good (0.21)
|   |   |   |   |   |   |   |   |   |   savings_status = >=1000: good (0.0)
|   |   |   |   |   |   |   |   |   |   savings_status = no known savings: bad (2.37/0.56)
|   |   |   |   |   |   |   |   |   duration > 30: bad (6.02)
|   |   |   |   |   |   |   other_parties = co applicant: good (2.61)
|   |   |   |   |   |   |   other_parties = guarantor: bad (0.0)
|   |   |   |   |   personal_status = male mar/wid: good (0.03)
|   |   |   |   |   personal_status = female single: bad (0.0)
|   |   |   |   num_dependents > 1: bad (13.32/1.4)
|   duration > 39
|   |   residence_since <= 1: good (3.02)
|   |   residence_since > 1
|   |   |   savings_status = <100: bad (32.18/2.34)
|   |   |   savings_status = 100<=X<500: bad (6.58/0.42)
|   |   |   savings_status = 500<=X<1000: good (0.37)
|   |   |   savings_status = >=1000: bad (0.0)
|   |   |   savings_status = no known savings
|   |   |   |   num_dependents <= 1: bad (4.39/0.74)
|   |   |   |   num_dependents > 1: good (3.66)

Number of Leaves  : 	212

Size of the tree : 	287


Weight: 2.63

J48 pruned tree
------------------

duration <= 8
|   credit_amount <= 3380
|   |   residence_since <= 3: good (33.5/3.21)
|   |   residence_since > 3
|   |   |   age <= 26: bad (3.57/0.2)
|   |   |   age > 26: good (20.29/1.32)
|   credit_amount > 3380: bad (6.21/0.8)
duration > 8
|   job = unemp/unskilled non res
|   |   residence_since <= 1: bad (3.57)
|   |   residence_since > 1: good (14.18/1.87)
|   job = unskilled resident
|   |   foreign_worker = yes
|   |   |   savings_status = <100
|   |   |   |   property_magnitude = real estate
|   |   |   |   |   employment = unemployed: bad (0.0)
|   |   |   |   |   employment = <1: bad (32.4/1.19)
|   |   |   |   |   employment = 1<=X<4
|   |   |   |   |   |   other_payment_plans = bank: bad (18.13)
|   |   |   |   |   |   other_payment_plans = stores: good (1.31)
|   |   |   |   |   |   other_payment_plans = none
|   |   |   |   |   |   |   checking_status = <0
|   |   |   |   |   |   |   |   duration <= 15: good (3.33/0.19)
|   |   |   |   |   |   |   |   duration > 15: bad (4.32/0.16)
|   |   |   |   |   |   |   checking_status = 0<=X<200: good (7.75/0.84)
|   |   |   |   |   |   |   checking_status = >=200: bad (13.54)
|   |   |   |   |   |   |   checking_status = no checking: good (1.29)
|   |   |   |   |   employment = 4<=X<7: good (5.48)
|   |   |   |   |   employment = >=7
|   |   |   |   |   |   other_payment_plans = bank: good (1.3)
|   |   |   |   |   |   other_payment_plans = stores: bad (2.63)
|   |   |   |   |   |   other_payment_plans = none: good (3.87)
|   |   |   |   property_magnitude = life insurance: good (8.17/2.42)
|   |   |   |   property_magnitude = car
|   |   |   |   |   num_dependents <= 1
|   |   |   |   |   |   other_payment_plans = bank: bad (3.95/0.16)
|   |   |   |   |   |   other_payment_plans = stores: good (1.4)
|   |   |   |   |   |   other_payment_plans = none: good (23.16/2.18)
|   |   |   |   |   num_dependents > 1: bad (6.12)
|   |   |   |   property_magnitude = no known property: bad (7.03/0.02)
|   |   |   savings_status = 100<=X<500
|   |   |   |   property_magnitude = real estate: good (3.0)
|   |   |   |   property_magnitude = life insurance: good (2.35/0.19)
|   |   |   |   property_magnitude = car: bad (6.26/0.31)
|   |   |   |   property_magnitude = no known property: bad (2.93)
|   |   |   savings_status = 500<=X<1000
|   |   |   |   installment_commitment <= 3: good (3.38)
|   |   |   |   installment_commitment > 3: bad (31.87/1.1)
|   |   |   savings_status = >=1000: good (1.9)
|   |   |   savings_status = no known savings
|   |   |   |   num_dependents <= 1: good (14.44/0.97)
|   |   |   |   num_dependents > 1: bad (4.11/0.52)
|   |   foreign_worker = no: good (7.6)
|   job = skilled
|   |   duration <= 15
|   |   |   purpose = new car
|   |   |   |   duration <= 11: good (6.6/1.68)
|   |   |   |   duration > 11
|   |   |   |   |   other_parties = none
|   |   |   |   |   |   personal_status = male div/sep: bad (3.14)
|   |   |   |   |   |   personal_status = female div/dep/mar: bad (6.38/2.08)
|   |   |   |   |   |   personal_status = male single
|   |   |   |   |   |   |   credit_amount <= 1206: bad (3.09/0.02)
|   |   |   |   |   |   |   credit_amount > 1206: good (10.6)
|   |   |   |   |   |   personal_status = male mar/wid: bad (4.96/2.42)
|   |   |   |   |   |   personal_status = female single: good (0.0)
|   |   |   |   |   other_parties = co applicant: bad (2.61)
|   |   |   |   |   other_parties = guarantor: good (0.02)
|   |   |   purpose = used car: good (3.89/0.99)
|   |   |   purpose = furniture/equipment: good (38.3/5.27)
|   |   |   purpose = radio/tv
|   |   |   |   age <= 22
|   |   |   |   |   employment = unemployed: bad (0.0)
|   |   |   |   |   employment = <1: bad (3.68)
|   |   |   |   |   employment = 1<=X<4: good (3.58)
|   |   |   |   |   employment = 4<=X<7: bad (1.82)
|   |   |   |   |   employment = >=7: bad (0.0)
|   |   |   |   age > 22: good (41.58/3.55)
|   |   |   purpose = domestic appliance: good (0.99/0.21)
|   |   |   purpose = repairs: bad (4.74/0.42)
|   |   |   purpose = education: good (9.26/1.19)
|   |   |   purpose = vacation: good (0.0)
|   |   |   purpose = retraining: bad (1.17/0.18)
|   |   |   purpose = business: good (4.16)
|   |   |   purpose = other: good (0.0)
|   |   duration > 15
|   |   |   other_parties = none
|   |   |   |   credit_amount <= 7763
|   |   |   |   |   employment = unemployed: bad (4.89/1.76)
|   |   |   |   |   employment = <1
|   |   |   |   |   |   residence_since <= 2
|   |   |   |   |   |   |   installment_commitment <= 3
|   |   |   |   |   |   |   |   own_telephone = none: good (5.16/1.11)
|   |   |   |   |   |   |   |   own_telephone = yes: bad (6.03/1.29)
|   |   |   |   |   |   |   installment_commitment > 3: good (12.79/0.16)
|   |   |   |   |   |   residence_since > 2
|   |   |   |   |   |   |   age <= 22: good (2.45)
|   |   |   |   |   |   |   age > 22: bad (27.63/3.48)
|   |   |   |   |   employment = 1<=X<4
|   |   |   |   |   |   purpose = new car
|   |   |   |   |   |   |   duration <= 30: bad (9.63/2.79)
|   |   |   |   |   |   |   duration > 30: good (3.34)
|   |   |   |   |   |   purpose = used car: good (3.04)
|   |   |   |   |   |   purpose = furniture/equipment
|   |   |   |   |   |   |   age <= 24: bad (7.53/0.28)
|   |   |   |   |   |   |   age > 24: good (24.86/0.28)
|   |   |   |   |   |   purpose = radio/tv
|   |   |   |   |   |   |   savings_status = <100
|   |   |   |   |   |   |   |   installment_commitment <= 2
|   |   |   |   |   |   |   |   |   property_magnitude = real estate: bad (5.64/1.4)
|   |   |   |   |   |   |   |   |   property_magnitude = life insurance: bad (0.0)
|   |   |   |   |   |   |   |   |   property_magnitude = car: good (2.46)
|   |   |   |   |   |   |   |   |   property_magnitude = no known property: bad (0.0)
|   |   |   |   |   |   |   |   installment_commitment > 2: bad (22.33/0.66)
|   |   |   |   |   |   |   savings_status = 100<=X<500: bad (2.28)
|   |   |   |   |   |   |   savings_status = 500<=X<1000: bad (0.0)
|   |   |   |   |   |   |   savings_status = >=1000: good (0.02)
|   |   |   |   |   |   |   savings_status = no known savings: good (2.48)
|   |   |   |   |   |   purpose = domestic appliance: bad (0.19)
|   |   |   |   |   |   purpose = repairs: good (4.18)
|   |   |   |   |   |   purpose = education
|   |   |   |   |   |   |   checking_status = <0: bad (0.22)
|   |   |   |   |   |   |   checking_status = 0<=X<200: good (2.58/0.02)
|   |   |   |   |   |   |   checking_status = >=200: bad (0.0)
|   |   |   |   |   |   |   checking_status = no checking: bad (11.48/1.18)
|   |   |   |   |   |   purpose = vacation: bad (0.0)
|   |   |   |   |   |   purpose = retraining: bad (0.0)
|   |   |   |   |   |   purpose = business
|   |   |   |   |   |   |   residence_since <= 1: good (2.95)
|   |   |   |   |   |   |   residence_since > 1
|   |   |   |   |   |   |   |   existing_credits <= 1: bad (14.08/0.22)
|   |   |   |   |   |   |   |   existing_credits > 1: good (3.08/1.12)
|   |   |   |   |   |   purpose = other: good (1.15)
|   |   |   |   |   employment = 4<=X<7
|   |   |   |   |   |   property_magnitude = real estate: bad (13.73/0.59)
|   |   |   |   |   |   property_magnitude = life insurance
|   |   |   |   |   |   |   residence_since <= 2: bad (8.11/2.37)
|   |   |   |   |   |   |   residence_since > 2: good (15.29)
|   |   |   |   |   |   property_magnitude = car: good (22.56/3.64)
|   |   |   |   |   |   property_magnitude = no known property: bad (4.31/0.02)
|   |   |   |   |   employment = >=7
|   |   |   |   |   |   duration <= 45
|   |   |   |   |   |   |   credit_amount <= 6314: good (56.6/5.97)
|   |   |   |   |   |   |   credit_amount > 6314: bad (4.69/1.23)
|   |   |   |   |   |   duration > 45: bad (5.9/1.43)
|   |   |   |   credit_amount > 7763
|   |   |   |   |   personal_status = male div/sep: bad (1.03/0.19)
|   |   |   |   |   personal_status = female div/dep/mar
|   |   |   |   |   |   credit_amount <= 9629: good (8.19/0.84)
|   |   |   |   |   |   credit_amount > 9629: bad (2.3/0.02)
|   |   |   |   |   personal_status = male single
|   |   |   |   |   |   purpose = new car
|   |   |   |   |   |   |   age <= 40: bad (4.09)
|   |   |   |   |   |   |   age > 40: good (2.8/0.84)
|   |   |   |   |   |   purpose = used car: bad (19.59/0.16)
|   |   |   |   |   |   purpose = furniture/equipment: bad (0.84)
|   |   |   |   |   |   purpose = radio/tv: good (4.69)
|   |   |   |   |   |   purpose = domestic appliance: bad (0.0)
|   |   |   |   |   |   purpose = repairs: bad (0.0)
|   |   |   |   |   |   purpose = education: bad (2.87/0.09)
|   |   |   |   |   |   purpose = vacation: bad (0.0)
|   |   |   |   |   |   purpose = retraining: bad (0.0)
|   |   |   |   |   |   purpose = business: bad (20.07/1.15)
|   |   |   |   |   |   purpose = other: bad (0.0)
|   |   |   |   |   personal_status = male mar/wid: bad (0.0)
|   |   |   |   |   personal_status = female single: bad (0.0)
|   |   |   other_parties = co applicant
|   |   |   |   own_telephone = none: bad (21.99/1.49)
|   |   |   |   own_telephone = yes: good (2.94/0.31)
|   |   |   other_parties = guarantor
|   |   |   |   num_dependents <= 1: bad (9.94/3.13)
|   |   |   |   num_dependents > 1: good (3.71)
|   job = high qualif/self emp/mgmt
|   |   foreign_worker = yes
|   |   |   other_payment_plans = bank: good (26.75/2.76)
|   |   |   other_payment_plans = stores: bad (5.85/1.2)
|   |   |   other_payment_plans = none
|   |   |   |   residence_since <= 3
|   |   |   |   |   residence_since <= 1: good (7.26/1.14)
|   |   |   |   |   residence_since > 1
|   |   |   |   |   |   purpose = new car
|   |   |   |   |   |   |   duration <= 24: good (7.76/1.34)
|   |   |   |   |   |   |   duration > 24: bad (6.38)
|   |   |   |   |   |   purpose = used car: good (6.65/0.14)
|   |   |   |   |   |   purpose = furniture/equipment: bad (8.66/1.93)
|   |   |   |   |   |   purpose = radio/tv
|   |   |   |   |   |   |   existing_credits <= 1: good (4.16/0.84)
|   |   |   |   |   |   |   existing_credits > 1: bad (2.34/0.2)
|   |   |   |   |   |   purpose = domestic appliance: bad (0.0)
|   |   |   |   |   |   purpose = repairs: bad (0.0)
|   |   |   |   |   |   purpose = education: bad (3.46)
|   |   |   |   |   |   purpose = vacation: bad (0.0)
|   |   |   |   |   |   purpose = retraining: bad (0.0)
|   |   |   |   |   |   purpose = business: good (5.06/0.97)
|   |   |   |   |   |   purpose = other: bad (4.18/1.55)
|   |   |   |   residence_since > 3
|   |   |   |   |   credit_amount <= 7166: good (22.77/1.37)
|   |   |   |   |   credit_amount > 7166
|   |   |   |   |   |   duration <= 21: bad (3.96)
|   |   |   |   |   |   duration > 21: good (8.68/0.68)
|   |   foreign_worker = no: bad (2.52)

Number of Leaves  : 	140

Size of the tree : 	202


Weight: 2.33

J48 pruned tree
------------------

foreign_worker = yes
|   age <= 23
|   |   checking_status = <0
|   |   |   own_telephone = none: bad (19.98/6.07)
|   |   |   own_telephone = yes: good (4.93/0.09)
|   |   checking_status = 0<=X<200
|   |   |   credit_amount <= 2002: good (31.83/3.44)
|   |   |   credit_amount > 2002: bad (9.37/1.82)
|   |   checking_status = >=200: good (19.38)
|   |   checking_status = no checking
|   |   |   other_parties = none
|   |   |   |   residence_since <= 1: bad (5.75)
|   |   |   |   residence_since > 1: good (22.78/2.28)
|   |   |   other_parties = co applicant: bad (6.1)
|   |   |   other_parties = guarantor: good (0.0)
|   age > 23
|   |   credit_amount <= 2327
|   |   |   checking_status = <0
|   |   |   |   duration <= 16
|   |   |   |   |   duration <= 12
|   |   |   |   |   |   other_parties = none
|   |   |   |   |   |   |   duration <= 8: good (8.56/1.13)
|   |   |   |   |   |   |   duration > 8: bad (33.49/8.84)
|   |   |   |   |   |   other_parties = co applicant: good (2.02)
|   |   |   |   |   |   other_parties = guarantor: good (0.11)
|   |   |   |   |   duration > 12: good (12.33/0.2)
|   |   |   |   duration > 16: bad (57.43/6.66)
|   |   |   checking_status = 0<=X<200
|   |   |   |   credit_history = no credits/all paid: bad (7.63/0.77)
|   |   |   |   credit_history = all paid: bad (27.96)
|   |   |   |   credit_history = existing paid
|   |   |   |   |   duration <= 11
|   |   |   |   |   |   residence_since <= 1
|   |   |   |   |   |   |   own_telephone = none: bad (5.55)
|   |   |   |   |   |   |   own_telephone = yes: good (2.97)
|   |   |   |   |   |   residence_since > 1: good (20.08/0.54)
|   |   |   |   |   duration > 11
|   |   |   |   |   |   duration <= 16: bad (31.38/3.43)
|   |   |   |   |   |   duration > 16
|   |   |   |   |   |   |   personal_status = male div/sep: good (0.0)
|   |   |   |   |   |   |   personal_status = female div/dep/mar: bad (2.83/0.63)
|   |   |   |   |   |   |   personal_status = male single: good (4.91)
|   |   |   |   |   |   |   personal_status = male mar/wid: good (0.81)
|   |   |   |   |   |   |   personal_status = female single: good (0.0)
|   |   |   |   credit_history = delayed previously
|   |   |   |   |   age <= 44: good (3.84/0.95)
|   |   |   |   |   age > 44: bad (10.45)
|   |   |   |   credit_history = critical/other existing credit: bad (31.55/2.96)
|   |   |   checking_status = >=200
|   |   |   |   age <= 39
|   |   |   |   |   duration <= 7: good (3.05)
|   |   |   |   |   duration > 7: bad (31.8/2.71)
|   |   |   |   age > 39: good (9.88/1.25)
|   |   |   checking_status = no checking
|   |   |   |   job = unemp/unskilled non res: good (2.27)
|   |   |   |   job = unskilled resident
|   |   |   |   |   existing_credits <= 1: bad (36.61/5.82)
|   |   |   |   |   existing_credits > 1: good (2.54)
|   |   |   |   job = skilled
|   |   |   |   |   savings_status = <100: good (23.89/1.64)
|   |   |   |   |   savings_status = 100<=X<500
|   |   |   |   |   |   existing_credits <= 1: good (2.77)
|   |   |   |   |   |   existing_credits > 1: bad (5.2/0.19)
|   |   |   |   |   savings_status = 500<=X<1000: good (4.34/0.65)
|   |   |   |   |   savings_status = >=1000: good (0.97/0.46)
|   |   |   |   |   savings_status = no known savings: good (5.91)
|   |   |   |   job = high qualif/self emp/mgmt: good (9.43/0.53)
|   |   credit_amount > 2327
|   |   |   other_parties = none
|   |   |   |   credit_history = no credits/all paid
|   |   |   |   |   other_payment_plans = bank: good (15.29/0.72)
|   |   |   |   |   other_payment_plans = stores: bad (7.26)
|   |   |   |   |   other_payment_plans = none
|   |   |   |   |   |   checking_status = <0: bad (4.39)
|   |   |   |   |   |   checking_status = 0<=X<200
|   |   |   |   |   |   |   residence_since <= 1: good (2.07/0.53)
|   |   |   |   |   |   |   residence_since > 1: bad (13.78)
|   |   |   |   |   |   checking_status = >=200: good (0.06)
|   |   |   |   |   |   checking_status = no checking: good (2.03)
|   |   |   |   credit_history = all paid
|   |   |   |   |   duration <= 36: bad (18.1/2.7)
|   |   |   |   |   duration > 36: good (3.86/0.72)
|   |   |   |   credit_history = existing paid
|   |   |   |   |   purpose = new car
|   |   |   |   |   |   installment_commitment <= 2
|   |   |   |   |   |   |   credit_amount <= 11328: good (23.84/1.41)
|   |   |   |   |   |   |   credit_amount > 11328: bad (2.21)
|   |   |   |   |   |   installment_commitment > 2
|   |   |   |   |   |   |   savings_status = <100: bad (7.33/0.77)
|   |   |   |   |   |   |   savings_status = 100<=X<500: good (2.02/0.89)
|   |   |   |   |   |   |   savings_status = 500<=X<1000: bad (0.0)
|   |   |   |   |   |   |   savings_status = >=1000: bad (0.0)
|   |   |   |   |   |   |   savings_status = no known savings: good (2.45)
|   |   |   |   |   purpose = used car
|   |   |   |   |   |   installment_commitment <= 3
|   |   |   |   |   |   |   installment_commitment <= 2
|   |   |   |   |   |   |   |   num_dependents <= 1: good (4.92/1.07)
|   |   |   |   |   |   |   |   num_dependents > 1: bad (2.3/0.53)
|   |   |   |   |   |   |   installment_commitment > 2: bad (12.19/0.11)
|   |   |   |   |   |   installment_commitment > 3
|   |   |   |   |   |   |   credit_amount <= 5595: good (10.53)
|   |   |   |   |   |   |   credit_amount > 5595: bad (2.2/0.63)
|   |   |   |   |   purpose = furniture/equipment
|   |   |   |   |   |   personal_status = male div/sep: bad (11.74/1.04)
|   |   |   |   |   |   personal_status = female div/dep/mar
|   |   |   |   |   |   |   residence_since <= 3: bad (3.87/0.94)
|   |   |   |   |   |   |   residence_since > 3: good (11.72/0.53)
|   |   |   |   |   |   personal_status = male single
|   |   |   |   |   |   |   employment = unemployed: good (9.99/1.31)
|   |   |   |   |   |   |   employment = <1: good (0.06)
|   |   |   |   |   |   |   employment = 1<=X<4: good (11.53/0.05)
|   |   |   |   |   |   |   employment = 4<=X<7: bad (0.93/0.01)
|   |   |   |   |   |   |   employment = >=7: bad (6.53/1.5)
|   |   |   |   |   |   personal_status = male mar/wid: good (0.0)
|   |   |   |   |   |   personal_status = female single: good (0.0)
|   |   |   |   |   purpose = radio/tv
|   |   |   |   |   |   existing_credits <= 1
|   |   |   |   |   |   |   other_payment_plans = bank: good (2.16)
|   |   |   |   |   |   |   other_payment_plans = stores: good (2.75)
|   |   |   |   |   |   |   other_payment_plans = none
|   |   |   |   |   |   |   |   credit_amount <= 3878: good (14.64/2.52)
|   |   |   |   |   |   |   |   credit_amount > 3878: bad (21.9/2.93)
|   |   |   |   |   |   existing_credits > 1: bad (15.52/0.12)
|   |   |   |   |   purpose = domestic appliance: bad (0.1)
|   |   |   |   |   purpose = repairs: good (3.87/1.87)
|   |   |   |   |   purpose = education: bad (4.44/2.18)
|   |   |   |   |   purpose = vacation: good (0.0)
|   |   |   |   |   purpose = retraining: good (0.0)
|   |   |   |   |   purpose = business: bad (16.49/2.23)
|   |   |   |   |   purpose = other: good (0.85)
|   |   |   |   credit_history = delayed previously
|   |   |   |   |   age <= 28: bad (12.11/1.32)
|   |   |   |   |   age > 28: good (34.3/5.2)
|   |   |   |   credit_history = critical/other existing credit
|   |   |   |   |   credit_amount <= 7763: good (62.16/6.27)
|   |   |   |   |   credit_amount > 7763
|   |   |   |   |   |   job = unemp/unskilled non res: bad (0.0)
|   |   |   |   |   |   job = unskilled resident: bad (0.65)
|   |   |   |   |   |   job = skilled: bad (18.67/1.31)
|   |   |   |   |   |   job = high qualif/self emp/mgmt: good (4.81/1.25)
|   |   |   other_parties = co applicant
|   |   |   |   employment = unemployed: good (10.97)
|   |   |   |   employment = <1: bad (0.92)
|   |   |   |   employment = 1<=X<4: bad (4.62/0.23)
|   |   |   |   employment = 4<=X<7: bad (2.66/0.94)
|   |   |   |   employment = >=7: good (4.79/0.64)
|   |   |   other_parties = guarantor: good (13.3/2.17)
foreign_worker = no
|   checking_status = <0: good (22.4/0.92)
|   checking_status = 0<=X<200: bad (6.78/0.31)
|   checking_status = >=200: good (1.44)
|   checking_status = no checking: good (0.79)

Number of Leaves  : 	102

Size of the tree : 	153


Weight: 2.19

J48 pruned tree
------------------

purpose = new car
|   property_magnitude = real estate
|   |   duration <= 22
|   |   |   existing_credits <= 2: good (45.65/3.32)
|   |   |   existing_credits > 2: bad (3.62/0.7)
|   |   duration > 22
|   |   |   job = unemp/unskilled non res: bad (0.0)
|   |   |   job = unskilled resident: good (4.14/0.51)
|   |   |   job = skilled: bad (11.91/1.18)
|   |   |   job = high qualif/self emp/mgmt: bad (0.0)
|   property_magnitude = life insurance
|   |   other_payment_plans = bank: bad (17.97/0.03)
|   |   other_payment_plans = stores: bad (7.43)
|   |   other_payment_plans = none
|   |   |   existing_credits <= 1
|   |   |   |   num_dependents <= 1: bad (23.74/3.95)
|   |   |   |   num_dependents > 1: good (2.12/0.59)
